{"learner":{"attributes":{"best_iteration":"99","best_ntree_limit":"100","scikit_learn":"{\"n_estimators\": 100, \"objective\": \"reg:squarederror\", \"max_depth\": null, \"max_leaves\": null, \"max_bin\": null, \"grow_policy\": null, \"learning_rate\": null, \"verbosity\": null, \"booster\": null, \"tree_method\": null, \"gamma\": null, \"min_child_weight\": null, \"max_delta_step\": null, \"subsample\": null, \"sampling_method\": null, \"colsample_bytree\": null, \"colsample_bylevel\": null, \"colsample_bynode\": null, \"reg_alpha\": null, \"reg_lambda\": null, \"scale_pos_weight\": null, \"base_score\": null, \"missing\": NaN, \"num_parallel_tree\": null, \"random_state\": null, \"n_jobs\": null, \"monotone_constraints\": null, \"interaction_constraints\": null, \"importance_type\": null, \"gpu_id\": null, \"validate_parameters\": null, \"predictor\": null, \"enable_categorical\": false, \"feature_types\": null, \"max_cat_to_onehot\": null, \"max_cat_threshold\": null, \"eval_metric\": null, \"early_stopping_rounds\": null, \"callbacks\": null, \"_estimator_type\": \"regressor\"}"},"feature_names":[],"feature_types":[],"gradient_booster":{"model":{"gbtree_model_param":{"num_parallel_tree":"1","num_trees":"100","size_leaf_vector":"0"},"tree_info":[0,0,0,0,0,0,0,0,0,0,0,0,0,0,0,0,0,0,0,0,0,0,0,0,0,0,0,0,0,0,0,0,0,0,0,0,0,0,0,0,0,0,0,0,0,0,0,0,0,0,0,0,0,0,0,0,0,0,0,0,0,0,0,0,0,0,0,0,0,0,0,0,0,0,0,0,0,0,0,0,0,0,0,0,0,0,0,0,0,0,0,0,0,0,0,0,0,0,0,0],"trees":[{"base_weights":[4.0035686E0,3.237922E0,1.9718182E1,5.887963E-1,5.519113E0,1.2282353E-1,2.2145834E0,4.512247E0,7.855E0,-6.539682E-2,6.3304347E-1,2.7499998E-1,2.2869565E0,2.11875E0,4.968784E0,4.89E0,9.74E0,-1.711111E-1,7.285714E-2,-7.5E-2,6.686364E-1,2.1933334E0,5E-1,3.8441176E0,5.780244E0,2.358E0,5.5375E0,-2.6722223E-1,-7.105263E-2,-2.6923079E-2,1.49375E-1],"categories":[],"categories_nodes":[],"categories_segments":[],"categories_sizes":[],"default_left":[1,1,0,1,1,1,1,1,1,1,1,0,0,1,1,1,0,1,1,0,0,0,0,0,0,0,0,0,0,0,0],"id":0,"left_children":[1,3,-1,5,7,9,11,13,15,17,19,-1,-1,21,23,25,-1,27,29,-1,-1,-1,-1,-1,-1,-1,-1,-1,-1,-1,-1],"loss_changes":[2.8358264E3,1.392721E3,0E0,8.154582E1,2.5619482E2,8.204271E0,2.7400665E0,8.672449E1,1.5357617E2,9.3323815E-1,6.2977695E-1,0E0,0E0,8.3504486E-1,4.5313965E1,1.3174103E1,0E0,3.2721543E-1,2.1780078E-1,0E0,0E0,0E0,0E0,0E0,0E0,0E0,0E0,0E0,0E0,0E0,0E0],"parents":[2147483647,0,0,1,1,3,3,4,4,5,5,6,6,7,7,8,8,9,9,10,10,13,13,14,14,15,15,17,17,18,18],"right_children":[2,4,-1,6,8,10,12,14,16,18,20,-1,-1,22,24,26,-1,28,30,-1,-1,-1,-1,-1,-1,-1,-1,-1,-1,-1,-1],"split_conditions":[2.456E1,5.645E0,5.915455E0,3.075E0,1.249E1,1.23E0,2.008E3,2.0115E3,2.0135E3,7.935E-1,2.006E3,8.2499996E-2,6.86087E-1,1.12577E5,7.495E0,2.0095E3,2.922E0,2.0135E3,2.0145E3,-2.25E-2,2.0059092E-1,6.5800005E-1,1.5E-1,1.1532353E0,1.7340733E0,7.074E-1,1.66125E0,-8.016667E-2,-2.131579E-2,-8.076924E-3,4.4812504E-2],"split_indices":[1,1,0,1,1,1,0,0,0,1,0,0,0,2,1,0,0,0,0,0,0,0,0,0,0,0,0,0,0,0,0],"split_type":[0,0,0,0,0,0,0,0,0,0,0,0,0,0,0,0,0,0,0,0,0,0,0,0,0,0,0,0,0,0,0],"sum_hessian":[2.4E2,2.3E2,1E1,1.07E2,1.23E2,8.4E1,2.3E1,8.8E1,3.5E1,6.2E1,2.2E1,1E0,2.2E1,1.5E1,7.3E1,1.5E1,2E1,3.5E1,2.7E1,1E0,2.1E1,1.4E1,1E0,3.3E1,4E1,4E0,1.1E1,1.7E1,1.8E1,1.2E1,1.5E1],"tree_param":{"num_deleted":"0","num_feature":"7","num_nodes":"31","size_leaf_vector":"0"}},{"base_weights":[2.8679888E0,2.3092635E0,1.4340495E1,3.860104E-1,3.908911E0,1.6448977E1,6.5384088E0,8.7309934E-2,1.5225345E0,2.5992422E0,4.855062E0,-4.6805505E-2,4.5087352E-1,4.10471E-1,1.6132174E0,1.3541216E0,2.991378E0,3.2979383E0,6.1614895E0,-1.2259674E-1,5.231199E-2,2.396969E-2,4.9038962E-1,3.6878283E0,1.7618307E0,5.51717E0,8.678333E0,-2.1591822E-2,-1.8589115E-1,1.4730361E-2,1.8765624E-1,-6.375E-2,9.9704534E-2,6.795273E-1,4.0591443E-1,2.9553392E0,4.4846E0,4.25E-1,1.8758096E0],"categories":[],"categories_nodes":[],"categories_segments":[],"categories_sizes":[],"default_left":[1,1,1,1,1,0,0,1,1,1,1,1,1,0,0,0,0,1,1,1,1,1,1,1,1,0,0,0,0,0,0,0,0,0,0,0,0,0,0],"id":1,"left_children":[1,3,5,7,9,-1,-1,11,13,15,17,19,21,-1,-1,-1,-1,23,25,27,29,31,33,35,37,-1,-1,-1,-1,-1,-1,-1,-1,-1,-1,-1,-1,-1,-1],"loss_changes":[1.5116893E3,7.091688E2,7.3406006E1,3.5851982E1,1.4351257E2,0E0,0E0,4.1656604E0,1.5564079E0,2.2803406E1,1.2614734E2,4.7968423E-1,3.762455E-1,0E0,0E0,0E0,0E0,1.446463E1,1.374292E1,2.2613597E-1,1.3965656E-1,2.6286473E-2,5.9696674E-2,2.504364E0,5.7411575E-1,0E0,0E0,0E0,0E0,0E0,0E0,0E0,0E0,0E0,0E0,0E0,0E0,0E0,0E0],"parents":[2147483647,0,0,1,1,2,2,3,3,4,4,7,7,8,8,9,9,10,10,11,11,12,12,17,17,18,18,19,19,20,20,21,21,22,22,23,23,24,24],"right_children":[2,4,6,8,10,-1,-1,12,14,16,18,20,22,-1,-1,-1,-1,24,26,28,30,32,34,36,38,-1,-1,-1,-1,-1,-1,-1,-1,-1,-1,-1,-1,-1,-1],"split_conditions":[2.456E1,5.39E0,8.35E4,3.075E0,8.08E0,4.9346933E0,1.9615227E0,1.23E0,2.0105E3,2.0135E3,2.0145E3,7.935E-1,2.01E3,1.231413E-1,4.8396522E-1,4.062365E-1,8.9741343E-1,8.15E4,1.4195E1,1.65E4,2.0165E3,2.006E3,4.75E3,1.5385E1,2.0045E3,1.655151E0,2.6035001E0,-6.477547E-3,-5.5767346E-2,4.4191084E-3,5.6296874E-2,-1.9125E-2,2.9911362E-2,2.038582E-1,1.2177433E-1,8.866018E-1,1.3453801E0,1.2750001E-1,5.627429E-1],"split_indices":[1,1,2,1,1,0,0,1,0,0,0,1,0,0,0,0,0,2,1,2,0,0,2,1,0,0,0,0,0,0,0,0,0,0,0,0,0,0,0],"split_type":[0,0,0,0,0,0,0,0,0,0,0,0,0,0,0,0,0,0,0,0,0,0,0,0,0,0,0,0,0,0,0,0,0,0,0,0,0,0,0],"sum_hessian":[2.4E2,2.3E2,1E1,1.05E2,1.25E2,7E0,3E0,8.4E1,2.1E1,5.4E1,7.1E1,6.2E1,2.2E1,2E0,1.9E1,1.4E1,4E1,3.4E1,3.7E1,3.5E1,2.7E1,2E0,2E1,2.6E1,8E0,3.2E1,5E0,1.4E1,2.1E1,2.2E1,5E0,1E0,1E0,4E0,1.6E1,1.6E1,1E1,1E0,7E0],"tree_param":{"num_deleted":"0","num_feature":"7","num_nodes":"39","size_leaf_vector":"0"}},{"base_weights":[2.0753214E0,1.6572919E0,1.0665276E1,2.9876822E-1,2.827157E0,1.2131121E1,5.0672665E0,6.505684E-2,1.1140473E0,2.2497737E0,4.1760445E0,-3.278812E-2,3.3023837E-1,3.283768E-1,1.1705457E0,1.6432899E0,2.8062627E0,2.5627532E0,5.20636E0,-8.7546736E-2,3.8786825E-2,2.0374248E-2,3.5877904E-1,7.864539E-1,1.86563E0,2.3593857E0,3.5427241E0,3.3640459E0,1.5657427E0,-1.4431673E-1,-2.9156916E-2,9.086176E-2,-1.9778242E-2,-5.418749E-2,8.4748864E-2,5.1644075E-1,2.913033E-1,1.9288176E-1,8.2652295E-1,1.252287E0,2.029776E0,2.580775E0,1.5314595E0,1.3651726E0,3.8028083E0,1.6702285E0,3.6492848E-1],"categories":[],"categories_nodes":[],"categories_segments":[],"categories_sizes":[],"default_left":[1,1,1,1,1,0,0,1,1,1,1,1,1,0,0,1,1,1,0,1,1,1,1,1,1,1,0,1,1,0,0,0,0,0,0,0,0,0,0,0,0,0,0,0,0,0,0],"id":2,"left_children":[1,3,5,7,9,-1,-1,11,13,15,17,19,21,-1,-1,23,25,27,-1,29,31,33,35,37,39,41,-1,43,45,-1,-1,-1,-1,-1,-1,-1,-1,-1,-1,-1,-1,-1,-1,-1,-1,-1,-1],"loss_changes":[8.4772034E2,3.6628125E2,2.8792358E1,2.0505844E1,8.717926E1,0E0,0E0,2.2162952E0,6.809559E-1,2.5426117E1,4.649646E1,2.503144E-1,1.960957E-1,0E0,0E0,7.1056824E0,6.4512024E0,7.515129E0,0E0,1.1512458E-1,8.719072E-2,1.8991979E-2,7.296443E-2,1.02200985E-1,9.818497E-1,1.7297516E0,0E0,1.8247452E0,5.196972E-1,0E0,0E0,0E0,0E0,0E0,0E0,0E0,0E0,0E0,0E0,0E0,0E0,0E0,0E0,0E0,0E0,0E0,0E0],"parents":[2147483647,0,0,1,1,2,2,3,3,4,4,7,7,8,8,9,9,10,10,11,11,12,12,15,15,16,16,17,17,19,19,20,20,21,21,22,22,23,23,24,24,25,25,27,27,28,28],"right_children":[2,4,6,8,10,-1,-1,12,14,16,18,20,22,-1,-1,24,26,28,-1,30,32,34,36,38,40,42,-1,44,46,-1,-1,-1,-1,-1,-1,-1,-1,-1,-1,-1,-1,-1,-1,-1,-1,-1,-1],"split_conditions":[2.456E1,5.645E0,8.35E4,3.075E0,1.249E1,3.6393363E0,1.52018E0,1.23E0,2.0105E3,2.0145E3,2.0135E3,7.935E-1,2.01E3,9.8513044E-2,3.5116372E-1,2.0105E3,8.809999E0,6.05E4,1.561908E0,2.0135E3,2.15E4,2.006E3,4.75E3,7.1800003E0,6.795E0,3.53985E4,1.0628173E0,1.8575E1,2.3279999E1,-4.3295022E-2,-8.747075E-3,2.7258528E-2,-5.933473E-3,-1.6256249E-2,2.5424661E-2,1.5493223E-1,8.7391E-2,5.7864532E-2,2.4795689E-1,3.7568614E-1,6.0893285E-1,7.7423257E-1,4.5943785E-1,4.095518E-1,1.1408426E0,5.010686E-1,1.0947855E-1],"split_indices":[1,1,2,1,1,0,0,1,0,0,0,1,0,0,0,0,1,2,0,0,2,0,2,1,1,2,0,1,1,0,0,0,0,0,0,0,0,0,0,0,0,0,0,0,0,0,0],"split_type":[0,0,0,0,0,0,0,0,0,0,0,0,0,0,0,0,0,0,0,0,0,0,0,0,0,0,0,0,0,0,0,0,0,0,0,0,0,0,0,0,0,0,0,0,0,0,0],"sum_hessian":[2.4E2,2.3E2,1E1,1.07E2,1.23E2,7E0,3E0,8.4E1,2.3E1,8.8E1,3.5E1,6.2E1,2.2E1,2E0,2.1E1,4.4E1,4.4E1,1.5E1,2E1,3.5E1,2.7E1,2E0,2E1,1E1,3.4E1,3E1,1.4E1,7E0,8E0,1.7E1,1.8E1,1.4E1,1.3E1,1E0,1E0,4E0,1.6E1,1E0,9E0,9E0,2.5E1,2.2E1,8E0,2E0,5E0,7E0,1E0],"tree_param":{"num_deleted":"0","num_feature":"7","num_nodes":"47","size_leaf_vector":"0"}},{"base_weights":[1.5072467E0,1.1013063E0,6.475213E0,2.1534565E-1,1.9097033E0,4.9083004E0,1.26736765E1,4.813713E-2,7.9856974E-1,1.3337109E0,2.416619E0,2.1994202E0,5.9396625E0,-2.5584908E-2,2.3658001E-1,1.2292281E-1,8.226012E-1,6.543053E-1,1.5195739E0,1.6913658E0,3.063917E0,3.2016847E0,8.9786696E-1,8.156534E-3,-1.0237641E-1,1.3120471E-1,3.0247632E-1,2.3939204E-1,8.3822924E-1,2.9826373E-1,7.6689553E-1,1.0175023E0,1.7980077E0,1.8402047E0,1.1230702E0,-4.205105E-2,4.7996342E-2,-1.24301344E-1,-3.4155503E-2,-4.605937E-2,1.5353706E-1,7.0121855E-2,3.1495574E-1,3.0411658E-1,8.445757E-1,3.8841534E-1,1.8372837E0],"categories":[],"categories_nodes":[],"categories_segments":[],"categories_sizes":[],"default_left":[1,1,1,1,1,1,0,1,1,1,1,1,0,1,1,0,1,1,1,1,0,0,0,1,1,1,1,0,0,0,1,0,1,0,0,0,0,0,0,0,0,0,0,0,0,0,0],"id":3,"left_children":[1,3,5,7,9,11,-1,13,15,17,19,21,-1,23,25,-1,27,29,31,33,-1,-1,-1,35,37,39,41,-1,-1,-1,43,-1,45,-1,-1,-1,-1,-1,-1,-1,-1,-1,-1,-1,-1,-1,-1],"loss_changes":[4.78893E2,1.6001932E2,1.1261792E2,1.0493722E1,3.0938568E1,3.1637573E1,0E0,1.1869062E0,2.8856754E-1,6.2034836E0,2.345456E1,4.9523163E0,0E0,1.614805E-1,1.26966E-1,0E0,8.9674E-3,3.3247805E-1,4.3214493E0,5.554352E-1,0E0,0E0,0E0,9.002976E-2,2.4173483E-2,5.061777E-2,1.8509984E-2,0E0,0E0,0E0,1.0263777E-1,0E0,7.811737E-1,0E0,0E0,0E0,0E0,0E0,0E0,0E0,0E0,0E0,0E0,0E0,0E0,0E0,0E0],"parents":[2147483647,0,0,1,1,2,2,3,3,4,4,5,5,7,7,8,8,9,9,10,10,11,11,13,13,14,14,16,16,17,17,18,18,19,19,23,23,24,24,25,25,26,26,30,30,32,32],"right_children":[2,4,6,8,10,12,-1,14,16,18,20,22,-1,24,26,-1,28,30,32,34,-1,-1,-1,36,38,40,42,-1,-1,-1,44,-1,46,-1,-1,-1,-1,-1,-1,-1,-1,-1,-1,-1,-1,-1,-1],"split_conditions":[1.8625E1,5.645E0,3.6095E1,3.075E0,2.0145E3,2.011E3,3.802103E0,1.125E0,2.008E3,2.0105E3,8.809999E0,2.1615002E1,1.7818989E0,3.15E4,2.0135E3,3.6876842E-2,3.53E0,7.79E0,7.31E0,3.53985E4,9.191751E-1,9.605054E-1,2.693601E-1,6.9E-1,7.985E-1,2.006E3,1.3299999E0,7.1817614E-2,2.5146878E-1,8.947912E-2,2.0045E3,3.052507E-1,5E-1,5.5206144E-1,3.369211E-1,-1.2615316E-2,1.4398904E-2,-3.7290405E-2,-1.0246651E-2,-1.3817811E-2,4.606112E-2,2.1036558E-2,9.448673E-2,9.1234975E-2,2.5337273E-1,1.1652461E-1,5.5118513E-1],"split_indices":[1,1,1,1,0,0,0,1,0,0,1,1,0,2,0,0,1,1,1,2,0,0,0,1,1,0,1,0,0,0,0,0,3,0,0,0,0,0,0,0,0,0,0,0,0,0,0],"split_type":[0,0,0,0,0,0,0,0,0,0,0,0,0,0,0,0,0,0,0,0,0,0,0,0,0,0,0,0,0,0,0,0,0,0,0,0,0,0,0,0,0,0,0,0,0,0,0],"sum_hessian":[2.4E2,2.23E2,1.7E1,1.07E2,1.16E2,1.5E1,2E0,8.4E1,2.3E1,5.6E1,6E1,5E0,1E1,6.1E1,2.3E1,1E0,2.2E1,1.3E1,4.3E1,3E1,3E1,2E0,3E0,4.3E1,1.8E1,1E1,1.3E1,1E0,2.1E1,4E0,9E0,1.7E1,2.6E1,2.2E1,8E0,1.9E1,2.4E1,1.3E1,5E0,1E0,9E0,1E0,1.2E1,2E0,7E0,1E0,2.5E1],"tree_param":{"num_deleted":"0","num_feature":"7","num_nodes":"47","size_leaf_vector":"0"}},{"base_weights":[1.0986048E0,7.873313E-1,4.9111977E0,9.3327045E-2,1.3166627E0,3.6240458E0,1.0138942E1,1.0273887E-2,3.6370587E-1,1.074572E0,2.0017889E0,4.762211E0,1.8906044E0,-1.8647404E-2,1.2913029E-1,2.3270917E-1,5.41622E-1,5.4688627E-1,1.2428716E0,6.1299723E-1,2.2987025E0,6.9584686E-1,2.4682896E0,-6.2337995E-2,2.7054088E-2,1.419046E-1,3.0731538E-2,2.7909674E-2,2.8158325E-1,2.3062964E-1,5.975298E-1,2.622493E-1,5.8861476E-1,9.441875E-1,1.445677E0,3.425428E0,1.7033074E0,1.755091E-1,8.1078976E-1,-9.1559E-2,-3.4523934E-2,-1.9423049E-2,6.647191E-2,1.5004809E-1,2.209133E-2,4.9005985E-2,-2.9086769E-3,-3.915046E-2,6.331321E-2,3.174368E-1,6.821028E-2,1.1774582E0,6.973404E-1,1.2813412E0,1.9633944E0,1.3619283E0,2.215974E0],"categories":[],"categories_nodes":[],"categories_segments":[],"categories_sizes":[],"default_left":[1,1,1,1,1,1,0,1,1,1,1,0,1,1,1,1,1,1,1,0,1,1,0,1,1,1,1,1,1,0,0,0,0,1,1,0,1,0,0,0,0,0,0,0,0,0,0,0,0,0,0,0,0,0,0,0,0],"id":4,"left_children":[1,3,5,7,9,11,-1,13,15,17,19,-1,21,23,25,27,29,31,33,-1,35,37,-1,39,41,43,45,47,49,-1,-1,-1,-1,51,53,-1,55,-1,-1,-1,-1,-1,-1,-1,-1,-1,-1,-1,-1,-1,-1,-1,-1,-1,-1,-1,-1],"loss_changes":[2.8214224E2,8.2165375E1,8.437625E1,2.1969337E0,1.8913483E1,2.2563599E1,0E0,2.636565E-1,4.10007E-1,7.845978E0,1.1786133E1,0E0,3.803999E0,1.2548345E-1,1.4493674E-2,1.4228183E-1,1.8674374E-2,1.4257288E-1,2.996399E0,0E0,1.1607468E1,9.693539E-2,0E0,2.2847176E-2,5.8083937E-2,9.369314E-3,1.9868114E-3,1.1975405E-2,7.014978E-2,0E0,0E0,0E0,0E0,1.0215416E0,9.724808E-1,0E0,3.072586E-1,0E0,0E0,0E0,0E0,0E0,0E0,0E0,0E0,0E0,0E0,0E0,0E0,0E0,0E0,0E0,0E0,0E0,0E0,0E0,0E0],"parents":[2147483647,0,0,1,1,2,2,3,3,4,4,5,5,7,7,8,8,9,9,10,10,12,12,13,13,14,14,15,15,16,16,17,17,18,18,20,20,21,21,23,23,24,24,25,25,26,26,27,27,28,28,33,33,34,34,36,36],"right_children":[2,4,6,8,10,12,-1,14,16,18,20,-1,22,24,26,28,30,32,34,-1,36,38,-1,40,42,44,46,48,50,-1,-1,-1,-1,52,54,-1,56,-1,-1,-1,-1,-1,-1,-1,-1,-1,-1,-1,-1,-1,-1,-1,-1,-1,-1,-1,-1],"split_conditions":[1.8625E1,4.515E0,3.6095E1,1.765E0,1.14E1,6.85E4,3.0416827E0,1.125E0,2.0155E3,2.0125E3,2.0115E3,1.4286633E0,2.011E3,2.0145E3,1.675E0,2.3249998E0,1.8399999E0,2.0085E3,7.065E0,1.8389918E-1,1.5E0,2.007E3,7.404869E-1,2.0115E3,7.3E-1,4.075E4,2.0105E3,2.008E3,4.42E0,6.918889E-2,1.7925896E-1,7.867479E-2,1.7658444E-1,3.2223E4,2.0165E3,1.0276284E0,2.0155E3,5.265273E-2,2.4323694E-1,-2.7467702E-2,-1.0357181E-2,-5.8269147E-3,1.9941574E-2,4.501443E-2,6.627399E-3,1.4701796E-2,-8.726031E-4,-1.1745139E-2,1.8993963E-2,9.523105E-2,2.0463085E-2,3.5323745E-1,2.0920214E-1,3.8440236E-1,5.8901834E-1,4.0857852E-1,6.6479224E-1],"split_indices":[1,1,1,1,1,2,0,1,0,0,0,0,0,0,1,1,1,0,1,0,3,0,0,0,1,2,0,0,1,0,0,0,0,2,0,0,0,0,0,0,0,0,0,0,0,0,0,0,0,0,0,0,0,0,0,0,0],"split_type":[0,0,0,0,0,0,0,0,0,0,0,0,0,0,0,0,0,0,0,0,0,0,0,0,0,0,0,0,0,0,0,0,0,0,0,0,0,0,0,0,0,0,0,0,0,0,0,0,0,0,0,0,0,0,0,0,0],"sum_hessian":[2.4E2,2.23E2,1.7E1,9.7E1,1.26E2,1.5E1,2E0,7.5E1,2.2E1,9.5E1,3.1E1,8E0,7E0,6.1E1,1.4E1,1.4E1,8E0,2.4E1,7.1E1,6E0,2.5E1,3E0,4E0,3.1E1,3E1,1.2E1,2E0,3E0,1.1E1,2E0,6E0,4E0,2E1,3.1E1,4E1,7E0,1.8E1,1E0,2E0,1.4E1,1.7E1,1.4E1,1.6E1,1.1E1,1E0,1E0,1E0,1E0,2E0,9E0,2E0,1.4E1,1.7E1,3.3E1,7E0,1.3E1,5E0],"tree_param":{"num_deleted":"0","num_feature":"7","num_nodes":"57","size_leaf_vector":"0"}},{"base_weights":[8.1050014E-1,5.7117283E-1,3.7437673E0,9.1357E-2,9.715815E-1,2.690897E0,8.111153E0,2.5224887E-2,3.8240293E-1,7.97505E-1,1.527499E0,1.6450478E0,3.8005536E0,-1.2928439E-2,1.286351E-1,4.2334184E-1,2.2948107E-2,6.4857763E-1,1.2621924E0,9.3000644E-1,2.1453743E0,2.0294595E0,5.6106514E-1,2.1861754E-2,-4.5218367E-2,2.7373338E-1,9.318368E-2,1.0309887E-1,4.5916766E-1,-4.9634576E-2,8.4056735E-2,4.2018193E-1,7.433408E-1,2.1529129E0,8.7357384E-1,4.610762E-1,1.0027537E0,3.9488244E-1,2.2583418E0,1.4918268E-1,6.4863175E-1,-1.604407E-2,5.0129518E-2,-5.851367E-2,-1.7075442E-2,-3.32779E-2,1.0159102E-1,3.634979E-1,6.3138497E-1,2.825937E-1,5.570958E-1,7.5892484E-1,-1.7931461E-2,3.9075828E-1,2.4271922E0,2.738198E-1,9.8253405E-1],"categories":[],"categories_nodes":[],"categories_segments":[],"categories_sizes":[],"default_left":[1,1,1,1,1,1,0,1,1,1,1,1,0,1,1,1,1,1,1,1,1,0,1,1,1,0,1,0,1,0,0,1,1,1,1,0,0,0,0,0,0,0,0,0,0,0,0,0,0,0,0,0,0,0,0,0,0],"id":5,"left_children":[1,3,5,7,9,11,-1,13,15,17,19,21,-1,23,25,27,29,31,33,35,37,-1,39,41,43,-1,45,-1,47,-1,-1,49,51,53,55,-1,-1,-1,-1,-1,-1,-1,-1,-1,-1,-1,-1,-1,-1,-1,-1,-1,-1,-1,-1,-1,-1],"loss_changes":[1.6704625E2,4.2946663E1,6.0942978E1,1.9728446E0,1.0588013E1,1.2316437E1,0E0,3.3702573E-1,2.6988316E-1,5.7558136E0,8.341721E0,3.0282993E0,0E0,7.1761034E-2,9.280312E-2,1.4770103E-1,1.7478405E-2,1.2892761E0,5.734581E0,8.346844E-2,1.6789513E0,0E0,4.750395E-2,3.4021188E-2,1.1348419E-2,0E0,2.4644852E-2,0E0,1.7632484E-2,0E0,0E0,2.9467392E-1,6.1866E-1,1.9514885E0,8.419018E-1,0E0,0E0,0E0,0E0,0E0,0E0,0E0,0E0,0E0,0E0,0E0,0E0,0E0,0E0,0E0,0E0,0E0,0E0,0E0,0E0,0E0,0E0],"parents":[2147483647,0,0,1,1,2,2,3,3,4,4,5,5,7,7,8,8,9,9,10,10,11,11,13,13,14,14,15,15,16,16,17,17,18,18,19,19,20,20,22,22,23,23,24,24,26,26,28,28,31,31,32,32,33,33,34,34],"right_children":[2,4,6,8,10,12,-1,14,16,18,20,22,-1,24,26,28,30,32,34,36,38,-1,40,42,44,-1,46,-1,48,-1,-1,50,52,54,56,-1,-1,-1,-1,-1,-1,-1,-1,-1,-1,-1,-1,-1,-1,-1,-1,-1,-1,-1,-1,-1,-1],"split_conditions":[1.8625E1,4.9399996E0,3.6095E1,3.075E0,2.0155E3,2.0145E3,2.4333458E0,1.23E0,4.745E0,1.3275E1,9.344999E0,1.5E0,1.1401662E0,2.05E4,4.05E3,2.0105E3,2.012E3,2.0125E3,1.5E0,5.8500004E0,7.95E3,6.0883784E-1,2.007E3,6.85E-1,8.3299994E-1,8.2120016E-2,2.006E3,3.0929662E-2,4.515E0,-1.4890374E-2,2.521702E-2,8.69E0,1.1940001E1,2.0095E3,2.0115E3,1.3832286E-1,3.0082613E-1,1.1846474E-1,6.775026E-1,4.4754803E-2,1.9458954E-1,-4.813221E-3,1.5038856E-2,-1.7554102E-2,-5.1226327E-3,-9.98337E-3,3.0477308E-2,1.0904938E-1,1.894155E-1,8.4778115E-2,1.6712876E-1,2.2767746E-1,-5.3794384E-3,1.1722749E-1,7.281577E-1,8.2145944E-2,2.9476023E-1],"split_indices":[1,1,1,1,0,0,0,1,1,1,1,3,0,2,2,0,0,0,3,1,2,0,0,1,1,0,0,0,1,0,0,1,1,0,0,0,0,0,0,0,0,0,0,0,0,0,0,0,0,0,0,0,0,0,0,0,0],"split_type":[0,0,0,0,0,0,0,0,0,0,0,0,0,0,0,0,0,0,0,0,0,0,0,0,0,0,0,0,0,0,0,0,0,0,0,0,0,0,0,0,0,0,0,0,0,0,0,0,0,0,0,0,0,0,0,0,0],"sum_hessian":[2.4E2,2.23E2,1.7E1,1.02E2,1.21E2,1.5E1,2E0,8.4E1,1.8E1,9.4E1,2.7E1,9E0,6E0,6.2E1,2.2E1,1.6E1,2E0,7.3E1,2.1E1,1.5E1,1.2E1,6E0,3E0,3E1,3.2E1,3E0,1.9E1,2E0,1.4E1,1E0,1E0,2.3E1,5E1,5E0,1.6E1,3E0,1.2E1,1E0,1.1E1,1E0,2E0,1.3E1,1.7E1,2.1E1,1.1E1,1E0,1.8E1,1.1E1,3E0,1.3E1,1E1,4.9E1,1E0,1E0,4E0,3E0,1.3E1],"tree_param":{"num_deleted":"0","num_feature":"7","num_nodes":"57","size_leaf_vector":"0"}},{"base_weights":[5.996455E-1,5.2321255E-1,6.488922E0,3.6069506E-1,1.8407327E0,5.1029734E-2,6.1699003E-1,2.9468048E0,1.1854337E0,4.8997547E-3,2.0124054E-1,5.003519E-1,9.872522E-1,1.6282846E0,6.683247E-1,-4.2752266E-2,2.510525E-2,1.1385539E-1,3.245224E-1,7.133798E-1,3.8920373E-1,6.5775216E-1,1.291502E0,1.7531585E0,3.1464672E-1,4.1989097E-1,9.360025E-1,-5.0970197E-2,9.0254545E-3,2.8004306E-3,7.7904165E-2,1.3555574E-1,-1.8131256E-2,5.7833874E-1,1.4465617E0,6.502071E-1,2.6765215E-1,8.0587035E-1,3.733499E-1,3.3564997E-1,1.3431855E0,1.8037772E-1,4.7962075E-1],"categories":[],"categories_nodes":[],"categories_segments":[],"categories_sizes":[],"default_left":[1,1,0,1,1,1,1,0,1,1,1,1,1,1,1,1,1,1,0,1,1,1,1,0,0,1,0,0,0,0,0,0,0,0,0,0,0,0,0,0,0,0,0],"id":6,"left_children":[1,3,-1,5,7,9,11,-1,13,15,17,19,21,23,25,27,29,31,-1,33,35,37,39,-1,-1,41,-1,-1,-1,-1,-1,-1,-1,-1,-1,-1,-1,-1,-1,-1,-1,-1,-1],"loss_changes":[1.05087395E2,5.0510742E1,0E0,1.6952765E1,1.5351761E1,6.7807764E-1,4.558872E0,0E0,3.0338154E0,7.424858E-2,2.1083039E-1,1.8770161E0,1.8572693E0,9.247265E-1,2.7198315E-1,1.0246661E-2,6.3376024E-2,4.5420155E-2,0E0,2.133688E0,1.792943E0,3.310051E-1,1.9138718E-1,0E0,0E0,1.36294365E-2,0E0,0E0,0E0,0E0,0E0,0E0,0E0,0E0,0E0,0E0,0E0,0E0,0E0,0E0,0E0,0E0,0E0],"parents":[2147483647,0,0,1,1,3,3,4,4,5,5,6,6,8,8,9,9,10,10,11,11,12,12,13,13,14,14,15,15,16,16,17,17,19,19,20,20,21,21,22,22,25,25],"right_children":[2,4,-1,6,8,10,12,-1,14,16,18,20,22,24,26,28,30,32,-1,34,36,38,40,-1,-1,42,-1,-1,-1,-1,-1,-1,-1,-1,-1,-1,-1,-1,-1,-1,-1,-1,-1],"split_conditions":[3.6095E1,1.4735001E1,1.9466767E0,4.515E0,4.00005E4,1.765E0,2.0155E3,8.840415E-1,1.5E0,2.0125E3,2.0155E3,1.5E0,8.995E0,3.3285E1,2.0125E3,1.275E0,9.45E-1,4.42E0,9.735673E-2,1.3275E1,3.15155E4,1.66E4,7.95E3,5.259476E-1,9.439402E-2,6.7E4,2.8080076E-1,-1.5291059E-2,2.7076364E-3,8.401292E-4,2.337125E-2,4.0666725E-2,-5.439377E-3,1.7350163E-1,4.339685E-1,1.9506215E-1,8.029565E-2,2.4176112E-1,1.1200497E-1,1.0069499E-1,4.0295568E-1,5.4113317E-2,1.4388624E-1],"split_indices":[1,1,0,1,2,1,0,0,3,0,0,3,1,1,0,1,1,1,0,1,2,2,2,0,0,2,0,0,0,0,0,0,0,0,0,0,0,0,0,0,0,0,0],"split_type":[0,0,0,0,0,0,0,0,0,0,0,0,0,0,0,0,0,0,0,0,0,0,0,0,0,0,0,0,0,0,0,0,0,0,0,0,0,0,0,0,0,0,0],"sum_hessian":[2.4E2,2.38E2,2E0,2.13E2,2.5E1,9.7E1,1.16E2,8E0,1.7E1,7.5E1,2.2E1,9E1,2.6E1,8E0,9E0,2.2E1,5.3E1,1.4E1,8E0,2.9E1,6.1E1,1.4E1,1.2E1,7E0,1E0,6E0,3E0,1.9E1,3E0,3.8E1,1.5E1,1.2E1,2E0,2.6E1,3E0,1.8E1,4.3E1,8E0,6E0,1E0,1.1E1,2E0,4E0],"tree_param":{"num_deleted":"0","num_feature":"7","num_nodes":"43","size_leaf_vector":"0"}},{"base_weights":[4.4387767E-1,3.824314E-1,5.191138E0,2.6129246E-1,1.3647891E0,8.073805E-2,4.9533916E-1,2.1609902E0,8.90867E-1,9.846193E-3,2.31358E-1,9.5813644E-1,4.0815789E-1,1.2087259E0,5.1570725E-1,8.494313E-2,-5.100332E-3,1.0164085E-1,2.852456E-1,6.02779E-1,1.1493073E0,2.9178843E-1,5.355119E-1,1.2929543E0,2.6744938E-1,5.486214E-2,5.608165E-1,-7.3417625E-3,1.3702826E-1,5.03457E-4,-7.917104E-2,1.3126037E-1,-4.084432E-2,3.0012855E-1,6.61393E-2,-7.125378E-2,7.269934E-1,6.85706E-2,4.0488145E-1,7.850689E-1,4.2725894E-1,1.3014317E-1,5.983828E-1],"categories":[],"categories_nodes":[],"categories_segments":[],"categories_sizes":[],"default_left":[1,1,0,1,1,1,1,0,1,1,1,1,1,1,1,1,1,1,1,1,0,1,1,0,0,0,1,0,0,0,0,0,0,0,0,0,0,0,0,0,0,0,0],"id":7,"left_children":[1,3,-1,5,7,9,11,-1,13,15,17,19,21,23,25,27,29,31,33,35,-1,37,39,-1,-1,-1,41,-1,-1,-1,-1,-1,-1,-1,-1,-1,-1,-1,-1,-1,-1,-1,-1],"loss_changes":[6.83148E1,2.8084816E1,0E0,9.003254E0,7.8856125E0,1.300405E0,3.3612251E0,0E0,1.5231142E0,9.4718054E-2,2.4362302E-1,2.58296E-1,1.0293531E0,3.6773968E-1,1.7711592E-1,6.829943E-2,2.95103E-2,6.0225695E-2,6.8195105E-2,6.378734E-1,0E0,1.0829895E0,6.6413784E-1,0E0,0E0,0E0,6.7733765E-2,0E0,0E0,0E0,0E0,0E0,0E0,0E0,0E0,0E0,0E0,0E0,0E0,0E0,0E0,0E0,0E0],"parents":[2147483647,0,0,1,1,3,3,4,4,5,5,6,6,8,8,9,9,10,10,11,11,12,12,13,13,14,14,15,15,16,16,17,17,18,18,19,19,21,21,22,22,26,26],"right_children":[2,4,-1,6,8,10,12,-1,14,16,18,20,22,24,26,28,30,32,34,36,-1,38,40,-1,-1,-1,42,-1,-1,-1,-1,-1,-1,-1,-1,-1,-1,-1,-1,-1,-1,-1,-1],"split_conditions":[3.6095E1,1.4735001E1,1.5573415E0,6.075E0,4.00005E4,2.545E0,1.675E4,6.482971E-1,1.5E0,5.2E3,2.0125E3,2.0165E3,2.0145E3,3.3285E1,2.007E3,6.5999997E-1,7.61165E4,5.39375E4,5.84395E4,5.5E3,3.447922E-1,4.4E4,1.5E0,3.8788632E-1,8.023482E-2,1.6458644E-2,1.8575E1,-2.2025288E-3,4.110848E-2,1.510371E-4,-2.3751313E-2,3.937811E-2,-1.2253297E-2,9.003857E-2,1.9841792E-2,-2.1376133E-2,2.1809803E-1,2.057118E-2,1.2146444E-1,2.3552069E-1,1.2817769E-1,3.904295E-2,1.7951484E-1],"split_indices":[1,1,0,1,2,1,2,0,3,2,0,0,0,1,0,1,2,2,2,2,0,2,3,0,0,0,1,0,0,0,0,0,0,0,0,0,0,0,0,0,0,0,0],"split_type":[0,0,0,0,0,0,0,0,0,0,0,0,0,0,0,0,0,0,0,0,0,0,0,0,0,0,0,0,0,0,0,0,0,0,0,0,0,0,0,0,0,0,0],"sum_hessian":[2.4E2,2.38E2,2E0,2.13E2,2.5E1,1.21E2,9.2E1,8E0,1.7E1,8.3E1,3.8E1,1.3E1,7.9E1,8E0,9E0,1.3E1,7E1,1.2E1,2.6E1,6E0,7E0,4.3E1,3.6E1,7E0,1E0,1E0,8E0,5E0,8E0,6.6E1,4E0,1E1,2E0,2.4E1,2E0,1E0,5E0,1.5E1,2.8E1,9E0,2.7E1,1E0,7E0],"tree_param":{"num_deleted":"0","num_feature":"7","num_nodes":"43","size_leaf_vector":"0"}},{"base_weights":[3.277614E-1,2.783756E-1,4.1529107E0,1.8851012E-1,1.0073308E0,1.3587043E-2,3.1536084E-1,4.344407E-1,1.3382345E0,-7.974561E-3,6.238546E-2,5.7214147E-1,2.604786E-1,6.593887E-1,2.1170057E-1,4.2717806E-1,1.4378728E0,-2.324583E-2,2.2236306E-2,3.2586932E-2,1.0547528E-1,3.984928E-1,8.625113E-1,4.0013522E-1,1.9569105E-1,7.144952E-2,2.535111E-1,1.5135041E0,2.2733212E-1,-4.356936E-2,-6.8701147E-3,4.3656833E-2,-3.1530233E-3,4.6124134E-2,-1.1834616E-2,4.9911678E-2,1.2007266E-1,4.6608686E-1,-2.724568E-2,1.1290622E-1,9.6862775E-1,3.0732727E-1,9.72959E-1,5.637274E-1,1.4811558E-1,-3.4474134E-3,1.1062169E-1,4.6632767E-2,2.935725E-1],"categories":[],"categories_nodes":[],"categories_segments":[],"categories_sizes":[],"default_left":[1,1,0,1,1,1,1,1,1,1,1,1,1,0,1,0,1,1,1,1,1,1,1,1,1,1,1,0,0,0,0,0,0,0,0,0,0,0,0,0,0,0,0,0,0,0,0,0,0],"id":8,"left_children":[1,3,-1,5,7,9,11,13,15,17,19,21,23,-1,25,-1,27,29,31,33,35,37,39,41,43,45,47,-1,-1,-1,-1,-1,-1,-1,-1,-1,-1,-1,-1,-1,-1,-1,-1,-1,-1,-1,-1,-1,-1],"loss_changes":[4.437079E1,1.54664955E1,0E0,4.7441864E0,4.347475E0,9.624516E-2,1.598463E0,4.1156173E-1,8.381882E-1,3.0043831E-2,3.2515243E-2,7.1516466E-1,8.626909E-1,0E0,2.2934556E-2,0E0,9.377003E-1,1.4011607E-2,1.2102415E-2,1.1370042E-2,2.9288828E-3,4.4435978E-1,4.474535E-1,1.4021859E0,1.1946967E0,9.182986E-3,2.7749091E-2,0E0,0E0,0E0,0E0,0E0,0E0,0E0,0E0,0E0,0E0,0E0,0E0,0E0,0E0,0E0,0E0,0E0,0E0,0E0,0E0,0E0,0E0],"parents":[2147483647,0,0,1,1,3,3,4,4,5,5,6,6,7,7,8,8,9,9,10,10,11,11,12,12,14,14,16,16,17,17,18,18,19,19,20,20,21,21,22,22,23,23,24,24,25,25,26,26],"right_children":[2,4,-1,6,8,10,12,14,16,18,20,22,24,-1,26,-1,28,30,32,34,36,38,40,42,44,46,48,-1,-1,-1,-1,-1,-1,-1,-1,-1,-1,-1,-1,-1,-1,-1,-1,-1,-1,-1,-1,-1,-1],"split_conditions":[3.6095E1,1.4735001E1,1.2458732E0,4.065E0,2.0125E3,1.3299999E0,1.675E4,1.5E0,1.484E1,2.0155E3,2.0155E3,8.9E0,1.5E0,1.9781663E-1,6.7E4,1.2815343E-1,3.3285E1,6.85E-1,1.14E4,4.589E4,1.5350001E0,8.25E0,7.95E3,1.3275E1,5E-1,2.0095E3,2.007E3,4.5405126E-1,6.8199635E-2,-1.3070809E-2,-2.0610346E-3,1.3097051E-2,-9.45907E-4,1.3837241E-2,-3.550385E-3,1.4973504E-2,3.60218E-2,1.3982606E-1,-8.173704E-3,3.3871867E-2,2.9058835E-1,9.2198186E-2,2.918877E-1,1.6911823E-1,4.4434674E-2,-1.034224E-3,3.318651E-2,1.398983E-2,8.807175E-2],"split_indices":[1,1,0,1,0,1,2,3,1,0,0,1,3,0,2,0,1,1,2,2,1,1,2,1,5,0,0,0,0,0,0,0,0,0,0,0,0,0,0,0,0,0,0,0,0,0,0,0,0],"split_type":[0,0,0,0,0,0,0,0,0,0,0,0,0,0,0,0,0,0,0,0,0,0,0,0,0,0,0,0,0,0,0,0,0,0,0,0,0,0,0,0,0,0,0,0,0,0,0,0,0],"sum_hessian":[2.4E2,2.38E2,2E0,2.13E2,2.5E1,9E1,1.23E2,1E1,1.5E1,6.3E1,2.7E1,2E1,1.03E2,4E0,6E0,2E0,1.3E1,4.2E1,2.1E1,1.7E1,1E1,1.4E1,6E0,3.1E1,7.2E1,2E0,4E0,1.2E1,1E0,1.8E1,2.4E1,1.1E1,1E1,1.3E1,4E0,3E0,7E0,1.2E1,2E0,1E0,5E0,2.8E1,3E0,7E0,6.5E1,1E0,1E0,1E0,3E0],"tree_param":{"num_deleted":"0","num_feature":"7","num_nodes":"49","size_leaf_vector":"0"}},{"base_weights":[2.4329339E-1,2.0362644E-1,3.3223293E0,1.322138E-1,7.161933E-1,5.3332772E-2,2.9377574E-1,1.2173358E0,4.673135E-1,3.408399E-3,1.18501574E-1,3.7280262E-1,4.9155038E-2,2.8979206E-1,1.2970548E0,6.87486E-1,2.789392E-1,4.7983006E-2,-5.6851213E-3,-9.97887E-4,1.600883E-1,3.0178618E-1,6.40893E-1,-1.4320064E-1,2.1735963E-1,1.8691229E0,7.948449E-1,7.2511363E-1,1.9323254E-1,1.5096508E-1,3.670648E-1,-1.2059207E-2,8.2679704E-2,-1.7256417E-3,-5.6021333E-2,-1.6526167E-1,3.1921394E-2,2.1846135E-1,9.2216924E-2,3.9560747E-1,-4.7384858E-2,-9.463772E-2,-2.6585197E-1,-1.2142527E-1,3.7989965E-1,1.1155993E0,3.5556793E-1,2.2980142E-1,7.347026E-2,1.22424446E-1,4.4043607E-1],"categories":[],"categories_nodes":[],"categories_segments":[],"categories_sizes":[],"default_left":[1,1,0,1,1,1,1,1,1,1,1,1,1,0,1,1,1,1,1,1,1,1,0,1,1,0,1,0,0,1,1,0,0,0,0,0,0,0,0,0,0,0,0,0,0,0,0,0,0,0,0],"id":9,"left_children":[1,3,-1,5,7,9,11,13,15,17,19,21,23,-1,25,27,29,31,33,35,37,39,-1,41,43,-1,45,-1,-1,47,49,-1,-1,-1,-1,-1,-1,-1,-1,-1,-1,-1,-1,-1,-1,-1,-1,-1,-1,-1,-1],"loss_changes":[2.8758253E1,8.653606E0,0E0,2.6733525E0,3.0481253E0,4.6484822E-1,1.3155556E0,2.896099E-1,6.7920494E-1,3.3510678E-2,3.0827445E-1,7.9660606E-1,6.13518E-1,0E0,8.1272316E-1,2.7262688E-2,9.119737E-2,3.0162781E-2,1.3655384E-2,9.720196E-2,1.620996E-1,1.4274118E0,0E0,2.8447136E-2,5.967905E-1,0E0,4.487288E-1,0E0,0E0,2.5882304E-2,7.172686E-2,0E0,0E0,0E0,0E0,0E0,0E0,0E0,0E0,0E0,0E0,0E0,0E0,0E0,0E0,0E0,0E0,0E0,0E0,0E0,0E0],"parents":[2147483647,0,0,1,1,3,3,4,4,5,5,6,6,7,7,8,8,9,9,10,10,11,11,12,12,14,14,15,15,16,16,17,17,18,18,19,19,20,20,21,21,23,23,24,24,26,26,29,29,30,30],"right_children":[2,4,-1,6,8,10,12,14,16,18,20,22,24,-1,26,28,30,32,34,36,38,40,-1,42,44,-1,46,-1,-1,48,50,-1,-1,-1,-1,-1,-1,-1,-1,-1,-1,-1,-1,-1,-1,-1,-1,-1,-1,-1,-1],"split_conditions":[3.6095E1,1.367E1,9.966988E-1,7.24E0,4.00005E4,2.3249998E0,4.978E4,1.484E1,1.5E0,5.2E3,2.0125E3,4.35E4,6.5E4,8.693762E-2,1.9775E1,3.3285E1,2.0115E3,6.5999997E-1,7.61165E4,1.5E0,3.2223E4,3.9563E4,1.9226791E-1,1.1735001E1,2.007E3,5.607369E-1,2.0155E3,2.175341E-1,5.7969764E-2,2.0085E3,5.05E4,-3.6177624E-3,2.4803912E-2,-5.1769253E-4,-1.6806401E-2,-4.9578503E-2,9.576418E-3,6.553841E-2,2.7665079E-2,1.1868224E-1,-1.4215458E-2,-2.8391318E-2,-7.97556E-2,-3.6427584E-2,1.139699E-1,3.3467978E-1,1.0667039E-1,6.894043E-2,2.2041079E-2,3.6727335E-2,1.3213083E-1],"split_indices":[1,1,0,1,2,1,2,1,3,2,0,2,2,0,1,1,0,1,2,3,2,2,0,1,0,0,0,0,0,0,2,0,0,0,0,0,0,0,0,0,0,0,0,0,0,0,0,0,0,0,0],"split_type":[0,0,0,0,0,0,0,0,0,0,0,0,0,0,0,0,0,0,0,0,0,0,0,0,0,0,0,0,0,0,0,0,0,0,0,0,0,0,0,0,0,0,0,0,0,0,0,0,0,0,0],"sum_hessian":[2.4E2,2.38E2,2E0,2.1E2,2.8E1,1.42E2,6.8E1,8E0,2E1,8.1E1,6.1E1,5.1E1,1.7E1,1E0,7E0,8E0,1.2E1,1.3E1,6.8E1,1.6E1,4.5E1,4.2E1,9E0,8E0,9E0,2E0,5E0,7E0,1E0,6E0,6E0,5E0,8E0,6.4E1,4E0,2E0,1.4E1,2.3E1,2.2E1,3.3E1,9E0,7E0,1E0,3E0,6E0,2E0,3E0,2E0,4E0,2E0,4E0],"tree_param":{"num_deleted":"0","num_feature":"7","num_nodes":"51","size_leaf_vector":"0"}},{"base_weights":[1.8252222E-1,1.506873E-1,2.6578636E0,9.408139E-2,5.57348E-1,2.3111025E-2,1.8924032E-1,1.1273456E0,3.9162576E-1,4.8531494E-3,7.430963E-2,3.371746E-1,9.76788E-2,2.4632311E-1,1.2542855E0,2.4011216E-1,7.2528565E-1,-7.1523003E-3,2.7211707E-2,-2.0372868E-2,1.4016466E-1,2.5928038E-1,5.247385E-1,-2.6832366E-1,1.629103E-1,3.121847E-1,-2.2431207E-1,2.2828929E-1,8.784264E-1,-2.9675571E-2,3.2070912E-3,4.292416E-2,9.454924E-4,8.818E-2,-3.1380004E-1,2.9267725E-1,4.7260586E-2,-1.1582017E-1,2.7891722E-1,5.914135E-1,-4.3308735E-3,-1.4806227E-1,-3.8163483E-1,2.8986135E-1,-6.0687554E-3,4.114283E-1,1.6151255E-1,5.1676035E-3,-3.416357E-1,7.121706E-2,2.7121687E-1,1.0159092E0,1.6424751E-1],"categories":[],"categories_nodes":[],"categories_segments":[],"categories_sizes":[],"default_left":[1,1,0,1,1,1,1,1,1,1,1,1,1,0,0,1,1,1,1,1,1,1,1,1,1,1,1,1,1,0,0,0,0,0,0,0,0,0,0,0,0,0,0,0,0,0,0,0,0,0,0,0,0],"id":10,"left_children":[1,3,-1,5,7,9,11,13,15,17,19,21,23,-1,-1,25,27,29,31,33,35,37,39,41,43,45,47,49,51,-1,-1,-1,-1,-1,-1,-1,-1,-1,-1,-1,-1,-1,-1,-1,-1,-1,-1,-1,-1,-1,-1,-1,-1],"loss_changes":[1.8590847E1,5.4492E0,0E0,1.4206072E0,2.2978792E0,1.13682255E-1,1.1861234E0,3.6206198E-1,1.0391462E0,2.462126E-2,2.0238571E-1,3.606906E-1,1.4045813E0,0E0,0E0,6.7252684E-1,3.32237E-1,1.4094815E-2,1.3166031E-2,4.7360396E-1,2.5537974E-1,2.238146E-1,3.200426E-1,6.6136956E-2,1.0529102E0,1.7280102E-1,8.253561E-2,9.1293454E-4,3.2407618E-1,0E0,0E0,0E0,0E0,0E0,0E0,0E0,0E0,0E0,0E0,0E0,0E0,0E0,0E0,0E0,0E0,0E0,0E0,0E0,0E0,0E0,0E0,0E0,0E0],"parents":[2147483647,0,0,1,1,3,3,4,4,5,5,6,6,7,7,8,8,9,9,10,10,11,11,12,12,15,15,16,16,17,17,18,18,19,19,20,20,21,21,22,22,23,23,24,24,25,25,26,26,27,27,28,28],"right_children":[2,4,-1,6,8,10,12,14,16,18,20,22,24,-1,-1,26,28,30,32,34,36,38,40,42,44,46,48,50,52,-1,-1,-1,-1,-1,-1,-1,-1,-1,-1,-1,-1,-1,-1,-1,-1,-1,-1,-1,-1,-1,-1,-1,-1],"split_conditions":[3.6095E1,1.367E1,7.973591E-1,6.075E0,2.6E4,4.065E0,3.26705E4,2.0155E3,2.8E1,2.0155E3,2.8241E4,2.0165E3,3.6527E4,7.389694E-2,3.7628564E-1,2.3279999E1,2.0125E3,6.85E-1,1.14E4,2.2417E4,3.92555E4,5.5E3,1.87E4,8.264999E0,4.978E4,5.8621E4,2.011E3,9.68535E4,3.3285E1,-8.902672E-3,9.621274E-4,1.2877248E-2,2.8364774E-4,2.6454E-2,-9.4140016E-2,8.780318E-2,1.4178176E-2,-3.474605E-2,8.367517E-2,1.7742406E-1,-1.299262E-3,-4.4418685E-2,-1.1449046E-1,8.695841E-2,-1.8206267E-3,1.23428494E-1,4.8453767E-2,1.5502811E-3,-1.02490716E-1,2.136512E-2,8.1365064E-2,3.0477276E-1,4.9274255E-2],"split_indices":[1,1,0,1,2,1,2,0,1,0,2,0,2,0,0,1,0,1,2,2,2,2,2,1,2,2,0,2,1,0,0,0,0,0,0,0,0,0,0,0,0,0,0,0,0,0,0,0,0,0,0,0,0],"split_type":[0,0,0,0,0,0,0,0,0,0,0,0,0,0,0,0,0,0,0,0,0,0,0,0,0,0,0,0,0,0,0,0,0,0,0,0,0,0,0,0,0,0,0,0,0,0,0,0,0,0,0,0,0],"sum_hessian":[2.4E2,2.38E2,2E0,2.1E2,2.8E1,1.21E2,8.9E1,5E0,2.3E1,9E1,3.1E1,3.3E1,5.6E1,1E0,4E0,1.7E1,6E0,5.9E1,3.1E1,1.3E1,1.8E1,2.5E1,8E0,8E0,4.8E1,1.5E1,2E0,2E0,4E0,1.8E1,4.1E1,1.9E1,1.2E1,1E1,3E0,6E0,1.2E1,1E0,2.4E1,7E0,1E0,5E0,3E0,2.7E1,2.1E1,8E0,7E0,1E0,1E0,1E0,1E0,3E0,1E0],"tree_param":{"num_deleted":"0","num_feature":"7","num_nodes":"53","size_leaf_vector":"0"}},{"base_weights":[1.3592346E-1,1.1037105E-1,2.1262906E0,5.0610833E-2,3.4711254E-1,5.946568E-3,9.61528E-2,7.7135813E-1,2.294313E-1,-2.095037E-2,1.7004635E-2,1.7193864E-1,4.907875E-2,4.9749932E-1,1.0577714E0,-3.444887E-1,3.048647E-1,-7.5554964E-3,-1.9800341E-1,9.534224E-3,1.12213135E-1,3.8521137E-2,2.2177148E-1,-5.760672E-2,9.99234E-2,2.0384541E-1,8.2108945E-1,-9.080219E-2,-3.852098E-1,8.441737E-1,1.8684073E-1,-1.9022612E-2,4.899776E-2,2.0421945E-2,-1.1708991E-2,2.8427768E-1,-4.7677834E-2,2.5116876E-1,-2.7056932E-3,1.5094176E-1,-1.191777E-1,2.3691176E-1,-6.981343E-3,2.941773E-1,-7.874107E-2,3.2606316E-1,1.0217133E0,-3.0170512E-1,2.5229788E-1],"categories":[],"categories_nodes":[],"categories_segments":[],"categories_sizes":[],"default_left":[1,1,0,1,1,1,1,1,1,1,1,1,1,1,0,1,1,1,0,1,0,1,1,1,1,1,0,0,0,1,1,0,0,0,0,0,0,0,0,0,0,0,0,0,0,0,0,0,0],"id":11,"left_children":[1,3,-1,5,7,9,11,13,15,17,19,21,23,25,-1,27,29,31,-1,33,-1,35,37,39,41,43,-1,-1,-1,45,47,-1,-1,-1,-1,-1,-1,-1,-1,-1,-1,-1,-1,-1,-1,-1,-1,-1,-1],"loss_changes":[1.2022257E1,3.363739E0,0E0,3.899752E-1,2.219462E0,2.950421E-2,3.3047825E-1,2.581277E-1,1.7934389E0,6.728047E-2,4.8717402E-2,2.3080575E-1,3.3121938E-1,4.977895E-1,0E0,1.6674042E-2,2.0700727E0,1.9090142E-2,0E0,1.5504271E-2,0E0,2.4657734E-1,1.7225397E-1,2.747996E-1,6.0208684E-1,1.5079668E-1,0E0,0E0,0E0,2.1876764E-1,1.035484E0,0E0,0E0,0E0,0E0,0E0,0E0,0E0,0E0,0E0,0E0,0E0,0E0,0E0,0E0,0E0,0E0,0E0,0E0],"parents":[2147483647,0,0,1,1,3,3,4,4,5,5,6,6,7,7,8,8,9,9,10,10,11,11,12,12,13,13,15,15,16,16,17,17,19,19,21,21,22,22,23,23,24,24,25,25,29,29,30,30],"right_children":[2,4,-1,6,8,10,12,14,16,18,20,22,24,26,-1,28,30,32,-1,34,-1,36,38,40,42,44,-1,-1,-1,46,48,-1,-1,-1,-1,-1,-1,-1,-1,-1,-1,-1,-1,-1,-1,-1,-1,-1,-1],"split_conditions":[3.6095E1,1.0895E1,6.378872E-1,4.515E0,2.39E4,2.0125E3,3.26705E4,2.0165E3,2.9988E4,4.29E0,4.1949997E0,6E0,4.1015E4,1.734E4,3.1733143E-1,2.49E4,4.00005E4,2.4850001E0,-5.9401024E-2,2.235E4,3.3663943E-2,5.29E0,9.625E0,5.75E0,4.9499E4,1.785E1,2.4632685E-1,-2.7240658E-2,-1.15562946E-1,3.6E4,4.19295E4,-5.706784E-3,1.4699329E-2,6.1265836E-3,-3.5126973E-3,8.528331E-2,-1.4303351E-2,7.535063E-2,-8.11708E-4,4.5282528E-2,-3.575331E-2,7.107353E-2,-2.094403E-3,8.825319E-2,-2.3622323E-2,9.781895E-2,3.06514E-1,-9.051154E-2,7.568937E-2],"split_indices":[1,1,0,1,2,0,2,0,2,1,1,1,2,2,0,2,2,1,0,2,0,1,1,1,2,1,0,0,0,2,2,0,0,0,0,0,0,0,0,0,0,0,0,0,0,0,0,0,0],"split_type":[0,0,0,0,0,0,0,0,0,0,0,0,0,0,0,0,0,0,0,0,0,0,0,0,0,0,0,0,0,0,0,0,0,0,0,0,0,0,0,0,0,0,0,0,0,0,0,0,0],"sum_hessian":[2.4E2,2.38E2,2E0,1.91E2,4.7E1,9.7E1,9.4E1,9E0,3.8E1,2.8E1,6.9E1,3.5E1,5.9E1,6E0,3E0,4E0,3.4E1,2.7E1,1E0,6.5E1,4E0,1E1,2.5E1,1.9E1,4E1,4E0,2E0,1E0,3E0,5E0,2.9E1,2.3E1,4E0,4.3E1,2.2E1,2E0,8E0,2.2E1,3E0,4E0,1.5E1,1.7E1,2.3E1,3E0,1E0,2E0,3E0,3E0,2.6E1],"tree_param":{"num_deleted":"0","num_feature":"7","num_nodes":"49","size_leaf_vector":"0"}},{"base_weights":[1.0229486E-1,8.179902E-2,1.701032E0,4.7623556E-2,3.276343E-1,1.5084387E-1,2.832806E-2,7.06569E-1,2.192492E-1,8.997026E-2,5.6968504E-1,-6.4178742E-3,5.8435667E-2,8.7504053E-1,2.4641736E-1,1.20393954E-1,4.4212708E-1,1.11204304E-1,-2.6290846E-1,-1.10236526E-1,8.3307105E-1,1.0237861E-2,-4.5953536E-1,1.6222708E-2,1.1232322E-1,1.6524792E-1,1.0565554E0,-6.692982E-2,4.3655586E-1,1.8145037E-1,-1.386661E-1,1.4358647E-1,5.3282607E-1,-3.2041583E-2,1.4996591E-1,-5.907422E-3,1.6032016E-1,-4.5042846E-2,2.3250122E-2,3.075378E-1,7.7631034E-2,1.1534596E-2,2.4218932E-1,-2.9815594E-2,-2.326088E-1,2.268982E-2,1.926899E-1,6.1514974E-1,1.0176563E-1],"categories":[],"categories_nodes":[],"categories_segments":[],"categories_sizes":[],"default_left":[1,1,0,1,1,1,1,1,1,1,1,1,1,1,1,1,1,1,0,0,0,1,0,1,1,0,0,0,0,1,1,1,1,0,0,0,0,0,0,0,0,0,0,0,0,0,0,0,0],"id":12,"left_children":[1,3,-1,5,7,9,11,13,15,17,19,21,23,25,27,29,31,33,-1,-1,-1,35,-1,37,39,-1,-1,-1,-1,41,43,45,47,-1,-1,-1,-1,-1,-1,-1,-1,-1,-1,-1,-1,-1,-1,-1,-1],"loss_changes":[7.757816E0,1.9923638E0,0E0,4.1597298E-1,1.0361412E0,7.9012567E-1,1.8762995E-1,2.4950957E-1,4.755541E-1,2.5402778E-1,8.081622E-1,6.3865316E-1,2.165541E-1,3.4075832E-1,2.079567E-1,3.0987203E-1,1.13034725E-1,1.6582593E-1,0E0,0E0,0E0,1.9964303E-1,0E0,2.472686E-2,2.6056713E-1,0E0,0E0,0E0,0E0,1.5201405E-1,3.3967465E-2,1.3437215E-2,1.1483133E-1,0E0,0E0,0E0,0E0,0E0,0E0,0E0,0E0,0E0,0E0,0E0,0E0,0E0,0E0,0E0,0E0],"parents":[2147483647,0,0,1,1,3,3,4,4,5,5,6,6,7,7,8,8,9,9,10,10,11,11,12,12,13,13,14,14,15,15,16,16,17,17,21,21,23,23,24,24,29,29,30,30,31,31,32,32],"right_children":[2,4,-1,6,8,10,12,14,16,18,20,22,24,26,28,30,32,34,-1,-1,-1,36,-1,38,40,-1,-1,-1,-1,42,44,46,48,-1,-1,-1,-1,-1,-1,-1,-1,-1,-1,-1,-1,-1,-1,-1,-1],"split_conditions":[3.6095E1,1.367E1,5.1030964E-1,1.5E0,2.6E4,1.3275E1,2.0145E3,1.9775E1,2.8E1,1.2795E1,2.01E3,1.1675E1,5.8500004E0,2.0155E3,2.0165E3,2.2805E1,2.0125E3,6.83E0,-7.887254E-2,-3.307096E-2,2.4992132E-1,8.19E0,-1.3786061E-1,5.15E-1,5E-1,4.957438E-2,3.1696662E-1,-2.0078946E-2,1.3096677E-1,5.0012E4,2.013E3,9.68535E4,3.3285E1,-9.6124755E-3,4.4989776E-2,-1.7722266E-3,4.809605E-2,-1.3512854E-2,6.9750366E-3,9.2261344E-2,2.3289312E-2,3.4603789E-3,7.2656795E-2,-8.944678E-3,-6.9782645E-2,6.806946E-3,5.7806972E-2,1.8454492E-1,3.052969E-2],"split_indices":[1,1,0,3,2,1,0,1,1,1,0,1,1,0,0,1,0,1,0,0,0,1,0,1,5,0,0,0,0,2,0,2,1,0,0,0,0,0,0,0,0,0,0,0,0,0,0,0,0],"split_type":[0,0,0,0,0,0,0,0,0,0,0,0,0,0,0,0,0,0,0,0,0,0,0,0,0,0,0,0,0,0,0,0,0,0,0,0,0,0,0,0,0,0,0,0,0,0,0,0,0],"sum_hessian":[2.4E2,2.38E2,2E0,2.1E2,2.8E1,3.2E1,1.78E2,5E0,2.3E1,2.9E1,3E0,8.3E1,9.5E1,3E0,2E0,1.7E1,6E0,2.8E1,1E0,1E0,2E0,8.1E1,2E0,5.4E1,4.1E1,1E0,2E0,1E0,1E0,1.4E1,3E0,2E0,4E0,6E0,2.2E1,7.4E1,7E0,5E0,4.9E1,5E0,3.6E1,4E0,1E1,2E0,1E0,1E0,1E0,3E0,1E0],"tree_param":{"num_deleted":"0","num_feature":"7","num_nodes":"49","size_leaf_vector":"0"}},{"base_weights":[7.764645E-2,6.1214715E-2,1.3608259E0,2.4689432E-2,2.0604053E-1,-2.117032E-2,4.1427147E-2,5.118543E-1,1.2234367E-1,-2.8509516E-4,-5.7429653E-2,2.4504662E-2,1.15334116E-1,3.3319622E-1,6.9654226E-1,-2.6972008E-1,1.7485724E-1,-1.1224563E-2,1.164976E-1,-1.17618695E-1,-2.9631963E-3,4.7557734E-2,-7.077766E-2,3.0264172E-1,3.0397538E-2,4.0769243E-1,-5.6890488E-2,5.3588295E-1,9.682352E-2,-4.594913E-3,-1.08371854E-1,3.3768177E-2,1.4097822E-1,4.066634E-2,-1.4248762E-1,-3.0159622E-2,5.2170455E-2,6.0155443E-3,1.0111189E-1,-1.0846232E-2,-2.8436154E-1,9.348497E-3,3.4320524E-1,7.1592666E-2,-7.0790686E-2,2.0394897E-1,5.434529E-1,2.2233327E-1,6.370745E-1,-2.6805815E-1,1.3246E-1],"categories":[],"categories_nodes":[],"categories_segments":[],"categories_sizes":[],"default_left":[1,1,0,1,1,1,1,1,1,1,1,1,1,1,0,0,1,1,1,1,1,1,1,1,1,1,0,1,1,0,0,0,0,0,0,0,0,0,0,0,0,0,0,0,0,0,0,0,0,0,0],"id":13,"left_children":[1,3,-1,5,7,9,11,13,15,17,19,21,23,25,-1,-1,27,29,31,33,35,37,39,41,43,45,-1,47,49,-1,-1,-1,-1,-1,-1,-1,-1,-1,-1,-1,-1,-1,-1,-1,-1,-1,-1,-1,-1,-1,-1],"loss_changes":[4.9981494E0,1.2591763E0,0E0,1.4825383E-1,1.1659691E0,3.9362412E-2,1.7352103E-1,9.787464E-2,8.5012054E-1,4.474401E-2,6.1938867E-2,2.5816584E-1,4.0444133E-1,2.2661364E-1,0E0,0E0,9.341403E-1,2.0111721E-2,1.3152249E-3,4.1221857E-2,1.8067263E-2,2.0851892E-1,2.9132465E-1,9.196758E-2,8.426887E-2,5.5125117E-2,0E0,4.8728466E-2,4.255999E-1,0E0,0E0,0E0,0E0,0E0,0E0,0E0,0E0,0E0,0E0,0E0,0E0,0E0,0E0,0E0,0E0,0E0,0E0,0E0,0E0,0E0,0E0],"parents":[2147483647,0,0,1,1,3,3,4,4,5,5,6,6,7,7,8,8,9,9,10,10,11,11,12,12,13,13,16,16,17,17,18,18,19,19,20,20,21,21,22,22,23,23,24,24,25,25,27,27,28,28],"right_children":[2,4,-1,6,8,10,12,14,16,18,20,22,24,26,-1,-1,28,30,32,34,36,38,40,42,44,46,-1,48,50,-1,-1,-1,-1,-1,-1,-1,-1,-1,-1,-1,-1,-1,-1,-1,-1,-1,-1,-1,-1,-1,-1],"split_conditions":[3.6095E1,1.0895E1,4.082478E-1,2.0125E3,2.39E4,5.5299997E0,4.35E4,2.0165E3,2.9988E4,4.9399996E0,7.67E0,3.48985E4,4.5179E4,1.79E1,2.089627E-1,-8.0916025E-2,4.00005E4,4.745E0,2.0115E3,3.7302E4,6.56705E4,3.6799998E0,9.344999E0,3.9699998E0,7.83E0,1.734E4,-1.7067147E-2,3.6E4,4.0225E4,-1.3784741E-3,-3.251156E-2,1.0130454E-2,4.2293467E-2,1.2199903E-2,-4.2746287E-2,-9.047887E-3,1.5651137E-2,1.8046633E-3,3.0333567E-2,-3.2538697E-3,-8.530846E-2,2.8045492E-3,1.0296158E-1,2.14778E-2,-2.1237206E-2,6.1184693E-2,1.6303588E-1,6.669998E-2,1.9112235E-1,-8.041745E-2,3.9738E-2],"split_indices":[1,1,0,0,2,1,2,0,2,1,1,2,2,1,0,0,2,1,0,2,2,1,1,1,1,2,0,2,2,0,0,0,0,0,0,0,0,0,0,0,0,0,0,0,0,0,0,0,0,0,0],"split_type":[0,0,0,0,0,0,0,0,0,0,0,0,0,0,0,0,0,0,0,0,0,0,0,0,0,0,0,0,0,0,0,0,0,0,0,0,0,0,0,0,0,0,0,0,0,0,0,0,0,0,0],"sum_hessian":[2.4E2,2.38E2,2E0,1.91E2,4.7E1,5.1E1,1.4E2,9E0,3.8E1,3.3E1,1.8E1,1.15E2,2.5E1,6E0,3E0,4E0,3.4E1,3.1E1,2E0,8E0,1E1,9.3E1,2.2E1,7E0,1.8E1,5E0,1E0,5E0,2.9E1,3E1,1E0,1E0,1E0,1E0,7E0,7E0,3E0,5.3E1,4E1,1.8E1,4E0,1E0,6E0,1.3E1,5E0,3E0,2E0,2E0,3E0,2E0,2.7E1],"tree_param":{"num_deleted":"0","num_feature":"7","num_nodes":"51","size_leaf_vector":"0"}},{"base_weights":[5.852169E-2,4.534621E-2,1.0886612E0,2.3854377E-2,2.0015417E-1,1.3164959E0,3.164959E-1,9.129536E-2,1.1287858E-2,1.4726289E-1,6.094577E-1,2.5378403E-1,9.6140215E-3,-3.6689777E-5,7.5042225E-2,2.7416655E-1,2.7462196E-2,1.5202181E-1,6.357031E-1,-1.8331178E-1,3.671704E-2,8.428897E-2,-7.8111356E-3,1.28008155E-2,1.9810274E-1,-7.103443E-3,2.9819766E-1,1.0381162E-1,-5.2320004E-2,-8.397818E-3,1.9317645E-1,-2.663207E-1,-8.646965E-3,6.253593E-2,-1.3904159E-1,2.1306278E-2,4.200406E-1,3.4172426E-4,-1.1464777E-1,-9.221252E-3,2.641546E-2,2.69924E-1,-3.5514515E-2,5.2845097E-1,1.9930191E-1,2.3932378E-1,1.8753609E-2,6.898427E-2,-1.0425214E-1],"categories":[],"categories_nodes":[],"categories_segments":[],"categories_sizes":[],"default_left":[1,1,1,1,1,0,0,1,1,1,0,1,1,1,1,1,1,1,0,1,1,1,1,1,1,0,1,1,1,0,0,0,0,0,0,0,0,0,0,0,0,0,0,0,0,0,0,0,0],"id":14,"left_children":[1,3,5,7,9,-1,-1,11,13,15,-1,17,19,21,23,25,27,29,-1,31,33,35,37,39,41,-1,43,45,47,-1,-1,-1,-1,-1,-1,-1,-1,-1,-1,-1,-1,-1,-1,-1,-1,-1,-1,-1,-1],"loss_changes":[3.2216263E0,7.9040396E-1,1.11112595E-1,1.777916E-1,5.380585E-1,0E0,0E0,4.355457E-1,1.2923886E-1,4.029557E-1,0E0,3.308735E-1,1.2699471E-1,1.0096292E-1,2.0426954E-1,8.998841E-2,9.68013E-2,6.7642376E-2,0E0,4.1193344E-2,1.03990816E-1,2.659555E-1,1.2285358E-1,5.9402133E-3,1.6059443E-1,0E0,1.6793144E-1,8.772297E-2,5.758848E-2,0E0,0E0,0E0,0E0,0E0,0E0,0E0,0E0,0E0,0E0,0E0,0E0,0E0,0E0,0E0,0E0,0E0,0E0,0E0,0E0],"parents":[2147483647,0,0,1,1,2,2,3,3,4,4,7,7,8,8,9,9,11,11,12,12,13,13,14,14,15,15,16,16,17,17,19,19,20,20,21,21,22,22,23,23,24,24,26,26,27,27,28,28],"right_children":[2,4,6,8,10,-1,-1,12,14,16,-1,18,20,22,24,26,28,30,-1,32,34,36,38,40,42,-1,44,46,48,-1,-1,-1,-1,-1,-1,-1,-1,-1,-1,-1,-1,-1,-1,-1,-1,-1,-1,-1,-1],"split_conditions":[3.6095E1,1.367E1,2.0135E3,1.5E0,2.0165E3,3.9494878E-1,9.4948776E-2,4.2725E4,2.0165E3,1.5E0,1.8283731E-1,1.298E1,4.4E4,5E-1,6.145E0,1.484E1,5.90005E4,6.285E0,1.9071093E-1,2.0145E3,8.0316E4,1.2975E1,1.2700001E1,3.75E3,1.87E4,-2.131033E-3,1.827E1,1.6665E1,2.0085E3,-2.5193454E-3,5.7952937E-2,-7.989621E-2,-2.5940896E-3,1.8760778E-2,-4.1712478E-2,6.391884E-3,1.2601219E-1,1.0251728E-4,-3.439433E-2,-2.7663757E-3,7.924639E-3,8.097721E-2,-1.06543545E-2,1.585353E-1,5.9790578E-2,7.179714E-2,5.626083E-3,2.0695282E-2,-3.127564E-2],"split_indices":[1,1,0,3,0,0,0,2,0,3,0,1,2,5,1,1,2,1,0,0,2,1,1,2,2,0,1,1,0,0,0,0,0,0,0,0,0,0,0,0,0,0,0,0,0,0,0,0,0],"split_type":[0,0,0,0,0,0,0,0,0,0,0,0,0,0,0,0,0,0,0,0,0,0,0,0,0,0,0,0,0,0,0,0,0,0,0,0,0,0,0,0,0,0,0,0,0,0,0,0,0],"sum_hessian":[2.4E2,2.38E2,2E0,2.1E2,2.8E1,1E0,1E0,3.2E1,1.78E2,2.6E1,2E0,1E1,2.2E1,1.52E2,2.6E1,1.2E1,1.4E1,9E0,1E0,2E0,2E1,1.2E1,1.4E2,1.8E1,8E0,1E0,1.1E1,7E0,7E0,2E0,7E0,1E0,1E0,1.8E1,2E0,1.1E1,1E0,1.31E2,9E0,7E0,1.1E1,6E0,2E0,2E0,9E0,2E0,5E0,2E0,5E0],"tree_param":{"num_deleted":"0","num_feature":"7","num_nodes":"49","size_leaf_vector":"0"}},{"base_weights":[4.623521E-2,3.5006683E-2,9.253629E-1,1.3064825E-2,1.3761337E-1,1.1190224E0,2.69022E-1,1.5696842E-2,-2.527213E-1,2.608866E-1,5.1718824E-2,1.1734608E-2,1.3987221E-1,4.411717E-2,3.4753075E-1,9.293442E-3,5.5617666E-1,-1.8293194E-2,2.2725467E-2,-1.4215428E-1,2.2470836E-1,-9.271371E-2,9.0026096E-2,4.6920776E-1,1.9358894E-1,1.6758502E-1,-3.86587E-2,-3.0890194E-4,-4.9512815E-2,9.93811E-3,7.890269E-2,1.5201664E-1,3.6524296E-2,5.9690094E-1,2.5613594E-1,2.758173E-1,-7.987976E-3,2.864908E-1,-4.68177E-2,-1.03777766E-1,5.2462127E-2],"categories":[],"categories_nodes":[],"categories_segments":[],"categories_sizes":[],"default_left":[1,1,1,1,1,0,0,1,0,1,1,1,1,1,1,1,0,1,1,0,0,0,1,1,1,1,1,0,0,0,0,0,0,0,0,0,0,0,0,0,0],"id":15,"left_children":[1,3,5,7,9,-1,-1,11,-1,13,15,17,19,21,23,25,-1,27,29,-1,-1,-1,31,33,35,37,39,-1,-1,-1,-1,-1,-1,-1,-1,-1,-1,-1,-1,-1,-1],"loss_changes":[2.3465917E0,5.3628224E-1,8.02784E-2,1.4247857E-1,4.312241E-1,0E0,0E0,9.528501E-2,0E0,3.0395877E-1,5.512784E-1,6.3781746E-2,1.754995E-1,4.6037205E-2,1.339407E-1,1.9623913E-1,0E0,2.9180769E-2,1.0050437E-1,0E0,0E0,0E0,1.1030722E-2,1.0359049E-2,1.1823061E-1,1.6637518E-1,1.2411847E-1,0E0,0E0,0E0,0E0,0E0,0E0,0E0,0E0,0E0,0E0,0E0,0E0,0E0,0E0],"parents":[2147483647,0,0,1,1,2,2,3,3,4,4,7,7,9,9,10,10,11,11,12,12,13,13,14,14,15,15,17,17,18,18,22,22,23,23,24,24,25,25,26,26],"right_children":[2,4,6,8,10,-1,-1,12,-1,14,16,18,20,22,24,26,-1,28,30,-1,-1,-1,32,34,36,38,40,-1,-1,-1,-1,-1,-1,-1,-1,-1,-1,-1,-1,-1,-1],"split_conditions":[3.6095E1,1.3275E1,2.0135E3,1.2795E1,1.5E0,3.357067E-1,8.07066E-2,1.0895E1,-7.581639E-2,2.0125E3,2.0165E3,2.0125E3,2.0065E3,2.0075E3,2.074E1,5E-1,1.6685301E-1,5.5299997E0,4.35E4,-4.2646285E-2,6.741251E-2,-2.7814114E-2,5.4512E4,4.07675E4,2.0155E3,2.2805E1,4.7281E4,-9.267059E-5,-1.4853845E-2,2.981433E-3,2.367081E-2,4.5604993E-2,1.09572895E-2,1.790703E-1,7.684079E-2,8.2745194E-2,-2.3963929E-3,8.5947245E-2,-1.4045311E-2,-3.1133331E-2,1.5738638E-2],"split_indices":[1,1,0,1,3,0,0,1,0,0,0,0,0,0,1,5,0,1,2,0,0,0,2,2,0,1,2,0,0,0,0,0,0,0,0,0,0,0,0,0,0],"split_type":[0,0,0,0,0,0,0,0,0,0,0,0,0,0,0,0,0,0,0,0,0,0,0,0,0,0,0,0,0,0,0,0,0,0,0,0,0,0,0,0,0],"sum_hessian":[2.4E2,2.38E2,2E0,1.97E2,4.1E1,1E0,1E0,1.96E2,1E0,1.6E1,2.5E1,1.91E2,5E0,5E0,1.1E1,2.4E1,1E0,5.1E1,1.4E2,1E0,4E0,1E0,4E0,5E0,6E0,5E0,1.9E1,3.3E1,1.8E1,1.15E2,2.5E1,1E0,3E0,2E0,3E0,4E0,2E0,3E0,2E0,1.1E1,8E0],"tree_param":{"num_deleted":"0","num_feature":"7","num_nodes":"41","size_leaf_vector":"0"}},{"base_weights":[3.637059E-2,2.6801838E-2,7.865575E-1,8.946645E-3,1.1033818E-1,9.5116806E-1,2.2866821E-1,1.1172905E-2,-2.1481323E-1,8.339907E-2,4.327469E-1,3.4074106E-3,5.7921514E-2,1.9480106E-1,8.765841E-3,-4.7165222E-2,8.248322E-3,9.97144E-3,1.7655027E-1,3.567322E-2,2.6388887E-1,1.292932E-1,-2.783066E-2,-8.4929466E-2,-1.9790154E-2,4.1724746E-3,1.6208738E-1,-1.0051088E-2,9.7579956E-2,2.506E-1,-3.0399323E-2,-7.880664E-2,7.433052E-2,3.7109742E-1,1.12698875E-1,2.9527377E-2,3.1406116E-1,1.0458422E-1,-5.7350006E-2],"categories":[],"categories_nodes":[],"categories_segments":[],"categories_sizes":[],"default_left":[1,1,1,1,1,0,0,1,0,1,0,1,1,1,1,1,1,1,1,1,1,1,1,0,0,0,0,0,0,0,0,0,0,0,0,0,0,0,0],"id":16,"left_children":[1,3,5,7,9,-1,-1,11,-1,13,-1,15,17,19,21,23,25,27,29,31,33,35,37,-1,-1,-1,-1,-1,-1,-1,-1,-1,-1,-1,-1,-1,-1,-1,-1],"loss_changes":[1.7089016E0,3.554951E-1,5.80014E-2,1.010333E-1,3.286962E-1,0E0,0E0,7.1318775E-2,0E0,3.3086404E-1,0E0,4.2008027E-2,1.5751076E-1,1.6648692E-1,1.1387031E-1,1.3826214E-2,9.713951E-2,3.7817806E-2,1.3021459E-1,3.241063E-2,1.364752E-1,1.0132777E-1,8.417391E-2,0E0,0E0,0E0,0E0,0E0,0E0,0E0,0E0,0E0,0E0,0E0,0E0,0E0,0E0,0E0,0E0],"parents":[2147483647,0,0,1,1,2,2,3,3,4,4,7,7,9,9,11,11,12,12,13,13,14,14,15,15,16,16,17,17,18,18,19,19,20,20,21,21,22,22],"right_children":[2,4,6,8,10,-1,-1,12,-1,14,-1,16,18,20,22,24,26,28,30,32,34,36,38,-1,-1,-1,-1,-1,-1,-1,-1,-1,-1,-1,-1,-1,-1,-1,-1],"split_conditions":[3.6095E1,1.3275E1,2.0135E3,1.2795E1,2.0165E3,2.8535044E-1,6.860047E-2,2.0165E3,-6.4443976E-2,1.5E0,1.2982407E-1,2.0085E3,7.6150002E0,2.0125E3,5E-1,5E-1,1.0895E1,1.56E4,1.81705E4,2.0075E3,2.074E1,2.0155E3,2.329E4,-2.5478842E-2,-5.9370464E-3,1.2517425E-3,4.8626218E-2,-3.0153266E-3,2.9273989E-2,7.518001E-2,-9.1197975E-3,-2.3641992E-2,2.2299157E-2,1.1132923E-1,3.3809666E-2,8.858213E-3,9.421835E-2,3.1375267E-2,-1.7205002E-2],"split_indices":[1,1,0,1,0,0,0,0,0,3,0,0,1,0,5,4,1,2,2,0,1,0,2,0,0,0,0,0,0,0,0,0,0,0,0,0,0,0,0],"split_type":[0,0,0,0,0,0,0,0,0,0,0,0,0,0,0,0,0,0,0,0,0,0,0,0,0,0,0,0,0,0,0,0,0,0,0,0,0,0,0],"sum_hessian":[2.4E2,2.38E2,2E0,1.97E2,4.1E1,1E0,1E0,1.96E2,1E0,3.9E1,2E0,1.69E2,2.7E1,1.5E1,2.4E1,1.4E1,1.55E2,2E1,7E0,5E0,1E1,5E0,1.9E1,5E0,9E0,1.52E2,3E0,1.7E1,3E0,5E0,2E0,1E0,4E0,5E0,5E0,4E0,1E0,3E0,1.6E1],"tree_param":{"num_deleted":"0","num_feature":"7","num_nodes":"39","size_leaf_vector":"0"}},{"base_weights":[2.874226E-2,2.0590639E-2,6.6857404E-1,6.496696E-3,8.654326E-2,8.0849266E-1,1.9436836E-1,8.383394E-3,-1.8259144E-1,6.490559E-2,3.4619775E-1,2.4938097E-3,4.3842178E-2,1.4534813E-1,1.082614E-2,4.8565776E-3,-6.2897936E-2,8.029844E-3,1.3236928E-1,2.474769E-2,1.9791673E-1,1.0768461E-1,-1.877271E-2,1.8448415E-3,1.2561774E-1,8.929417E-3,-7.90493E-2,4.7838274E-2,-3.2508574E-2,2.717148E-1,-5.5809976E-3,1.1806488E-1,-1.7528724E-2,3.601567E-1,1.2184599E-1,1.9404668E-1,-4.335968E-2,-8.796468E-2,4.583569E-2],"categories":[],"categories_nodes":[],"categories_segments":[],"categories_sizes":[],"default_left":[1,1,1,1,1,0,0,1,0,1,0,1,1,1,1,1,1,1,1,1,1,1,1,0,0,0,0,0,0,0,0,0,0,0,0,0,0,0,0],"id":17,"left_children":[1,3,5,7,9,-1,-1,11,-1,13,-1,15,17,19,21,23,25,27,29,31,33,35,37,-1,-1,-1,-1,-1,-1,-1,-1,-1,-1,-1,-1,-1,-1,-1,-1],"loss_changes":[1.2432094E0,2.21596E-1,4.1905046E-2,7.216769E-2,2.1349916E-1,0E0,0E0,4.1031655E-2,0E0,1.72438E-1,0E0,2.6571406E-2,8.770724E-2,9.653872E-2,7.369401E-2,5.977888E-2,7.666519E-3,3.544434E-2,1.5529849E-1,2.5740225E-2,9.1875255E-2,8.668078E-2,9.3439564E-2,0E0,0E0,0E0,0E0,0E0,0E0,0E0,0E0,0E0,0E0,0E0,0E0,0E0,0E0,0E0,0E0],"parents":[2147483647,0,0,1,1,2,2,3,3,4,4,7,7,9,9,11,11,12,12,13,13,14,14,15,15,16,16,17,17,18,18,19,19,20,20,21,21,22,22],"right_children":[2,4,6,8,10,-1,-1,12,-1,14,-1,16,18,20,22,24,26,28,30,32,34,36,38,-1,-1,-1,-1,-1,-1,-1,-1,-1,-1,-1,-1,-1,-1,-1,-1],"split_conditions":[3.6095E1,1.3275E1,2.0135E3,1.2795E1,2.0165E3,2.4254781E-1,5.8310512E-2,2.0165E3,-5.4777432E-2,1.5E0,1.0385933E-1,9.11165E4,1.50005E4,2.0125E3,5E-1,1.0895E1,6.35E-1,4.05E3,1.76E4,5.4512E4,1.4195E1,2.2805E1,4.0225E4,5.5345247E-4,3.7685324E-2,2.678825E-3,-2.371479E-2,1.43514825E-2,-9.7525725E-3,8.151445E-2,-1.6742994E-3,3.5419464E-2,-5.2586175E-3,1.0804701E-1,3.65538E-2,5.8214005E-2,-1.3007904E-2,-2.6389403E-2,1.3750707E-2],"split_indices":[1,1,0,1,0,0,0,0,0,3,0,2,2,0,5,1,1,2,2,2,1,1,2,0,0,0,0,0,0,0,0,0,0,0,0,0,0,0,0],"split_type":[0,0,0,0,0,0,0,0,0,0,0,0,0,0,0,0,0,0,0,0,0,0,0,0,0,0,0,0,0,0,0,0,0,0,0,0,0,0,0],"sum_hessian":[2.4E2,2.38E2,2E0,1.97E2,4.1E1,1E0,1E0,1.96E2,1E0,3.9E1,2E0,1.69E2,2.7E1,1.5E1,2.4E1,1.64E2,5E0,2E1,7E0,5E0,1E1,5E0,1.9E1,1.61E2,3E0,1E0,4E0,1E1,1E1,3E0,4E0,1E0,4E0,2E0,8E0,3E0,2E0,9E0,1E1],"tree_param":{"num_deleted":"0","num_feature":"7","num_nodes":"39","size_leaf_vector":"0"}},{"base_weights":[2.285363E-2,1.591155E-2,5.6828815E-1,4.784349E-3,6.7989506E-2,6.872196E-1,1.6521263E-1,6.3842987E-3,-1.5520287E-1,2.0152855E-1,3.5523735E-2,-1.2143356E-2,1.5185684E-2,2.615603E-1,1.4288902E-2,-1.6506538E-1,6.6730894E-2,-5.493523E-2,-9.13826E-3,5.0006896E-2,3.3133375E-3,-2.5405884E-3,3.1488857E-1,-3.809595E-2,5.9529305E-2,6.192684E-3,-2.0942807E-1,2.0690857E-1,2.4811907E-2,1.03756785E-4,-7.331615E-2,-1.3224268E-3,-2.1993877E-2,-2.967309E-3,2.2254398E-1,-1.2017286E-1,1.09967105E-2,3.4112453E-1,1.2768514E-1,-2.2568035E-1,6.922814E-2],"categories":[],"categories_nodes":[],"categories_segments":[],"categories_sizes":[],"default_left":[1,1,1,1,1,0,0,1,0,1,1,1,1,1,1,1,1,1,1,1,1,0,0,0,0,0,0,1,1,0,0,0,0,0,0,0,0,0,0,0,0],"id":18,"left_children":[1,3,5,7,9,-1,-1,11,-1,13,15,17,19,21,23,25,27,29,31,33,35,-1,-1,-1,-1,-1,-1,37,39,-1,-1,-1,-1,-1,-1,-1,-1,-1,-1,-1,-1],"loss_changes":[9.034923E-1,1.3817085E-1,3.027767E-2,5.167322E-2,1.7492977E-1,0E0,0E0,3.2309003E-2,0E0,8.618516E-2,2.301085E-1,7.7279834E-3,5.5231184E-2,8.530432E-2,9.3775615E-3,3.9284274E-2,1.7702547E-1,4.0542753E-3,6.1000343E-3,3.1142086E-1,9.714936E-2,0E0,0E0,0E0,0E0,0E0,0E0,3.0874789E-2,2.937715E-1,0E0,0E0,0E0,0E0,0E0,0E0,0E0,0E0,0E0,0E0,0E0,0E0],"parents":[2147483647,0,0,1,1,2,2,3,3,4,4,7,7,9,9,10,10,11,11,12,12,13,13,14,14,15,15,16,16,17,17,18,18,19,19,20,20,27,27,28,28],"right_children":[2,4,6,8,10,-1,-1,12,-1,14,16,18,20,22,24,26,28,30,32,34,36,-1,-1,-1,-1,-1,-1,38,40,-1,-1,-1,-1,-1,-1,-1,-1,-1,-1,-1,-1],"split_conditions":[3.6095E1,1.3275E1,2.0135E3,1.2795E1,2.39E4,2.061659E-1,4.956379E-2,1.3299999E0,-4.656086E-2,1.9775E1,2.9988E4,4.95E-1,1.675E4,5E-1,2.0165E3,2.49E4,4.00635E4,2.014E3,8.2299995E-1,1.42325E4,1.8914E4,-7.621765E-4,9.4466574E-2,-1.14287855E-2,1.7858792E-2,1.8578053E-3,-6.282842E-2,1.3530001E1,4.42675E4,3.1127038E-5,-2.1994846E-2,-3.9672808E-4,-6.5981634E-3,-8.9019275E-4,6.67632E-2,-3.605186E-2,3.2990132E-3,1.0233737E-1,3.8305543E-2,-6.770411E-2,2.0768443E-2],"split_indices":[1,1,0,1,2,0,0,1,0,1,2,1,2,5,0,2,2,0,1,2,2,0,0,0,0,0,0,1,2,0,0,0,0,0,0,0,0,0,0,0,0],"split_type":[0,0,0,0,0,0,0,0,0,0,0,0,0,0,0,0,0,0,0,0,0,0,0,0,0,0,0,0,0,0,0,0,0,0,0,0,0,0,0,0,0],"sum_hessian":[2.4E2,2.38E2,2E0,1.97E2,4.1E1,1E0,1E0,1.96E2,1E0,7E0,3.4E1,6.3E1,1.33E2,5E0,2E0,4E0,3E1,3E0,6E1,3.3E1,1E2,1E0,4E0,1E0,1E0,1E0,3E0,6E0,2.4E1,1E0,2E0,3.8E1,2.2E1,2.6E1,7E0,5E0,9.5E1,1E0,5E0,3E0,2.1E1],"tree_param":{"num_deleted":"0","num_feature":"7","num_nodes":"41","size_leaf_vector":"0"}},{"base_weights":[1.743402E-2,1.1516584E-2,4.8304495E-1,3.1348546E-3,5.075625E-2,5.8413696E-1,1.4043045E-1,4.49008E-3,-1.3192225E-1,-6.5476656E-2,8.4440276E-2,-1.3231273E-2,1.12745855E-2,-1.4590368E-1,1.2458642E-2,3.086748E-1,6.778686E-2,2.9127528E-3,-3.757971E-2,8.045644E-3,1.5927665E-1,5.5087984E-2,-4.853336E-2,1.8586544E-2,1.482385E-1,-5.8689862E-3,9.561372E-2,5.2049797E-2,-4.914515E-2,1.5717639E-2,-8.405226E-2,8.9971066E-2,1.3469934E-2,-6.0483098E-2,-1.2316942E-2,6.630236E-2,-1.4736453E-1,2.2935748E-1,5.7531018E-2],"categories":[],"categories_nodes":[],"categories_segments":[],"categories_sizes":[],"default_left":[1,1,1,1,1,0,0,1,0,1,1,1,1,0,1,0,1,1,1,1,0,1,1,1,1,0,0,0,0,0,0,0,0,0,0,0,0,0,0],"id":19,"left_children":[1,3,5,7,9,-1,-1,11,-1,13,15,17,19,-1,21,-1,23,25,27,29,-1,31,33,35,37,-1,-1,-1,-1,-1,-1,-1,-1,-1,-1,-1,-1,-1,-1],"loss_changes":[6.584455E-1,7.8447096E-2,2.1876156E-2,3.6832828E-2,1.6996695E-1,0E0,0E0,2.3834608E-2,0E0,6.449881E-2,1.0230686E-1,2.1728959E-2,6.705679E-2,0E0,1.82739E-2,0E0,1.2390864E-1,2.823973E-2,2.5363298E-2,1.0094812E-1,0E0,4.5951577E-3,5.5336347E-4,1.760589E-1,7.5102E-2,0E0,0E0,0E0,0E0,0E0,0E0,0E0,0E0,0E0,0E0,0E0,0E0,0E0,0E0],"parents":[2147483647,0,0,1,1,2,2,3,3,4,4,7,7,9,9,10,10,11,11,12,12,14,14,16,16,17,17,18,18,19,19,21,21,22,22,23,23,24,24],"right_children":[2,4,6,8,10,-1,-1,12,-1,14,16,18,20,-1,22,-1,24,26,28,30,-1,32,34,36,38,-1,-1,-1,-1,-1,-1,-1,-1,-1,-1,-1,-1,-1,-1],"split_conditions":[3.6095E1,1.3275E1,2.0135E3,1.2795E1,2.0115E3,1.752411E-1,4.2129137E-2,2.0125E3,-3.9576676E-2,1.953E1,9.84E3,5.5299997E0,1.1295E1,-4.3771103E-2,2.2805E1,9.260245E-2,4.7281E4,4.9399996E0,3.4161E4,9.469999E0,4.7783E-2,5.4512E4,2.008E3,4.00635E4,7E4,-1.760696E-3,2.8684117E-2,1.561494E-2,-1.4743546E-2,4.715292E-3,-2.5215678E-2,2.699132E-2,4.0409807E-3,-1.814493E-2,-3.6950829E-3,1.9890709E-2,-4.420936E-2,6.8807244E-2,1.7259305E-2],"split_indices":[1,1,0,1,0,0,0,0,0,1,2,1,1,0,1,0,2,1,2,1,0,2,0,2,2,0,0,0,0,0,0,0,0,0,0,0,0,0,0],"split_type":[0,0,0,0,0,0,0,0,0,0,0,0,0,0,0,0,0,0,0,0,0,0,0,0,0,0,0,0,0,0,0,0,0,0,0,0,0,0,0],"sum_hessian":[2.4E2,2.38E2,2E0,1.97E2,4.1E1,1E0,1E0,1.96E2,1E0,9E0,3.2E1,5.4E1,1.42E2,4E0,5E0,1E0,3.1E1,3.3E1,2.1E1,1.4E2,2E0,3E0,2E0,2E1,1.1E1,3.1E1,2E0,2E0,1.9E1,1.3E2,1E1,1E0,2E0,1E0,1E0,1.6E1,4E0,5E0,6E0],"tree_param":{"num_deleted":"0","num_feature":"7","num_nodes":"39","size_leaf_vector":"0"}},{"base_weights":[1.3667053E-2,8.62759E-3,4.105886E-1,4.245155E-2,5.6300353E-4,4.9651718E-1,1.1936569E-1,3.160538E-2,2.652645E-1,-5.687357E-3,3.7821833E-2,9.664607E-2,-4.1364986E-3,-1.54366065E-2,1.6170342E-2,-4.244403E-3,1.4351797E-1,1.4191897E-1,-3.1338118E-2,-1.3951778E-1,1.6073192E-2,2.542409E-3,-8.44621E-2,1.6744931E-1,-7.2019002E-3,5.0493167E-3,-9.5059395E-2,2.0563047E-1,-2.8546333E-2,2.531538E-2,1.9705635E-1,5.3779602E-2,-1.060098E-1,-1.8683355E-1,1.2147427E-3,3.6548853E-2,-6.16831E-2,-1.547621E-2,9.727097E-2,1.1774734E-2,-1.3331644E-1,2.9817056E-2,3.4101996E-1,-3.0374587E-2,2.444132E-2,-2.059666E-2,2.0443048E-2,6.186835E-2,2.6204443E-1,-6.294179E-2,2.012229E-2],"categories":[],"categories_nodes":[],"categories_segments":[],"categories_sizes":[],"default_left":[1,1,1,1,1,0,0,1,0,1,1,1,1,1,1,1,1,1,1,1,1,1,1,1,1,1,0,1,1,0,0,0,0,0,0,0,0,0,0,0,0,0,0,0,0,0,0,0,0,0,0],"id":20,"left_children":[1,3,5,7,9,-1,-1,11,-1,13,15,17,19,21,23,25,27,29,31,33,35,37,39,41,43,45,-1,47,49,-1,-1,-1,-1,-1,-1,-1,-1,-1,-1,-1,-1,-1,-1,-1,-1,-1,-1,-1,-1,-1,-1],"loss_changes":[4.7852296E-1,6.516962E-2,1.580602E-2,1.0278285E-1,4.539404E-2,0E0,0E0,1.0501022E-1,0E0,3.583667E-2,1.2510383E-1,9.715493E-2,8.4322914E-2,1.4417195E-1,1.8506384E-1,1.8204175E-2,9.136875E-2,7.216206E-2,3.7480585E-2,2.686242E-2,4.5241453E-2,1.6024503E-1,1.1440784E-1,1.5705423E-1,3.447228E-2,8.316804E-3,0E0,3.2448888E-2,6.288471E-3,0E0,0E0,0E0,0E0,0E0,0E0,0E0,0E0,0E0,0E0,0E0,0E0,0E0,0E0,0E0,0E0,0E0,0E0,0E0,0E0,0E0,0E0],"parents":[2147483647,0,0,1,1,2,2,3,3,4,4,7,7,9,9,10,10,11,11,12,12,13,13,14,14,15,15,16,16,17,17,18,18,19,19,20,20,21,21,22,22,23,23,24,24,25,25,27,27,28,28],"right_children":[2,4,6,8,10,-1,-1,12,-1,14,16,18,20,22,24,26,28,30,32,34,36,38,40,42,44,46,-1,48,50,-1,-1,-1,-1,-1,-1,-1,-1,-1,-1,-1,-1,-1,-1,-1,-1,-1,-1,-1,-1,-1,-1],"split_conditions":[3.6095E1,1.5E0,2.0135E3,5E-1,2.0165E3,1.4895517E-1,3.580971E-2,4.2725E4,7.957935E-2,4.35E4,7.6150002E0,2.014E1,4.42675E4,3.48985E4,4.5179E4,6.81E0,1.81705E4,8.205E0,2.0155E3,2.0155E3,7.7816E4,2.96115E4,2.0135E3,2.0135E3,2.0115E3,3.75E3,-2.851782E-2,7.8E3,8.995E0,7.5946143E-3,5.9116907E-2,1.6133882E-2,-3.180294E-2,-5.6050066E-2,3.644228E-4,1.0964656E-2,-1.850493E-2,-4.6428633E-3,2.9181292E-2,3.5324201E-3,-3.9994933E-2,8.945117E-3,1.0230599E-1,-9.112377E-3,7.332396E-3,-6.1789984E-3,6.1329147E-3,1.8560506E-2,7.861333E-2,-1.8882537E-2,6.036687E-3],"split_indices":[1,3,0,4,0,0,0,2,0,2,1,1,2,2,2,1,2,1,0,0,2,2,0,0,0,2,0,2,1,0,0,0,0,0,0,0,0,0,0,0,0,0,0,0,0,0,0,0,0,0,0],"split_type":[0,0,0,0,0,0,0,0,0,0,0,0,0,0,0,0,0,0,0,0,0,0,0,0,0,0,0,0,0,0,0,0,0,0,0,0,0,0,0,0,0,0,0,0,0,0,0,0,0,0,0],"sum_hessian":[2.4E2,2.38E2,2E0,4.5E1,1.93E2,1E0,1E0,4.4E1,1E0,1.66E2,2.7E1,1.5E1,2.9E1,1.15E2,5.1E1,2E1,7E0,1.1E1,4E0,3E0,2.6E1,9.2E1,2.3E1,6E0,4.5E1,1.9E1,1E0,5E0,2E0,4E0,7E0,2E0,2E0,2E0,1E0,2.1E1,5E0,7.8E1,1.4E1,8E0,1.5E1,4E0,2E0,2.6E1,1.9E1,7E0,1.2E1,2E0,3E0,1E0,1E0],"tree_param":{"num_deleted":"0","num_feature":"7","num_nodes":"51","size_leaf_vector":"0"}},{"base_weights":[1.12493755E-2,6.962756E-3,3.490003E-1,-8.731633E-4,3.1998027E-2,4.2203903E-1,1.0146141E-1,3.554368E-3,-1.5920416E-1,1.9348097E-1,1.9443773E-2,-1.0543258E-3,4.02462E-2,1.3488412E-2,-2.0574939E-1,1.7052174E-2,2.4660651E-1,-7.633551E-2,3.0775037E-2,-3.8254943E-3,7.0709914E-2,-2.6046643E-2,1.429413E-1,3.118197E-2,-1.3788974E-1,1.9225758E-1,1.6064053E-2,8.249509E-4,-5.4686125E-2,-9.0307575E-3,2.3470664E-1,2.3392947E-1,-9.458134E-2,2.7298516E-1,-5.5348873E-2,-9.783745E-3,5.65567E-2,-1.5718253E-1,-4.0005684E-2,1.9871712E-1,3.2453428E-3],"categories":[],"categories_nodes":[],"categories_segments":[],"categories_sizes":[],"default_left":[1,1,1,1,1,0,0,1,1,1,1,1,1,0,0,0,0,1,1,1,1,1,1,1,1,0,1,0,0,0,0,0,0,0,0,0,0,0,0,0,0],"id":21,"left_children":[1,3,5,7,9,-1,-1,11,13,15,17,19,21,-1,-1,-1,-1,23,25,27,29,31,33,35,37,-1,39,-1,-1,-1,-1,-1,-1,-1,-1,-1,-1,-1,-1,-1,-1],"loss_changes":[3.4649217E-1,4.6913616E-2,1.1419117E-2,1.288517E-1,1.1179399E-1,0E0,0E0,3.0311586E-2,4.2965308E-2,3.3286333E-2,6.0955442E-2,3.208983E-2,1.3988215E-1,0E0,0E0,0E0,0E0,4.4008616E-2,1.13314345E-1,3.670642E-2,8.0582835E-2,2.5375137E-1,2.2140081E-1,3.671818E-3,1.2656301E-3,0E0,1.0705842E-1,0E0,0E0,0E0,0E0,0E0,0E0,0E0,0E0,0E0,0E0,0E0,0E0,0E0,0E0],"parents":[2147483647,0,0,1,1,2,2,3,3,4,4,7,7,8,8,9,9,10,10,11,11,12,12,17,17,18,18,19,19,20,20,21,21,22,22,23,23,24,24,26,26],"right_children":[2,4,6,8,10,-1,-1,12,14,16,18,20,22,-1,-1,-1,-1,24,26,28,30,32,34,36,38,-1,40,-1,-1,-1,-1,-1,-1,-1,-1,-1,-1,-1,-1,-1,-1],"split_conditions":[3.6095E1,9.924999E0,2.0135E3,9.469999E0,9.995E3,1.2661171E-1,3.0438425E-2,8.08E0,2.0115E3,1.5E0,2.0304E4,7.75295E4,3.96835E4,4.046524E-3,-6.172482E-2,5.1156525E-3,7.3981956E-2,5E-1,1.0105E1,7.55E0,2.012E3,8.26E0,5.45E4,2.016E3,1.7255001E1,5.7677276E-2,2.39E4,2.474853E-4,-1.6405838E-2,-2.7092274E-3,7.0411995E-2,7.0178844E-2,-2.8374404E-2,8.189555E-2,-1.6604662E-2,-2.9351236E-3,1.6967012E-2,-4.715476E-2,-1.2001705E-2,5.961514E-2,9.736029E-4],"split_indices":[1,1,0,1,2,0,0,1,0,3,2,2,2,0,0,0,0,5,1,1,0,1,2,0,1,0,2,0,0,0,0,0,0,0,0,0,0,0,0,0,0],"split_type":[0,0,0,0,0,0,0,0,0,0,0,0,0,0,0,0,0,0,0,0,0,0,0,0,0,0,0,0,0,0,0,0,0,0,0,0,0,0,0,0,0],"sum_hessian":[2.4E2,2.38E2,2E0,1.82E2,5.6E1,1E0,1E0,1.78E2,4E0,3E0,5.3E1,1.59E2,1.9E1,1E0,3E0,1E0,2E0,5E0,4.8E1,1.54E2,5E0,1.2E1,7E0,2E0,3E0,3E0,4.5E1,1.42E2,1.2E1,4E0,1E0,2E0,1E1,4E0,3E0,1E0,1E0,2E0,1E0,2E0,4.3E1],"tree_param":{"num_deleted":"0","num_feature":"7","num_nodes":"41","size_leaf_vector":"0"}},{"base_weights":[9.576863E-3,5.9333486E-3,2.966512E-1,3.7381963E-3,7.815293E-2,3.5873413E-1,8.6242676E-2,5.3828093E-3,-9.176159E-2,-1.6491126E-2,2.0984204E-1,1.0174396E-2,-2.5704298E-2,-1.5439732E-1,4.8072815E-2,-6.986014E-2,4.2374928E-2,9.86873E-4,6.9006056E-2,6.5344637E-3,-7.7293545E-2,-4.7341347E-2,-1.8425465E-1,4.6690605E-3,-4.9111743E-2,4.2024724E-2,1.4009203E-1,-3.676352E-2,6.353906E-2,-1.0289873E-1,3.3821583E-2],"categories":[],"categories_nodes":[],"categories_segments":[],"categories_sizes":[],"default_left":[1,1,1,1,1,0,0,1,1,1,0,1,1,1,0,0,0,1,1,1,1,0,0,0,0,0,0,0,0,0,0],"id":22,"left_children":[1,3,5,7,9,-1,-1,11,13,15,-1,17,19,21,-1,-1,-1,23,25,27,29,-1,-1,-1,-1,-1,-1,-1,-1,-1,-1],"loss_changes":[2.5031608E-1,3.7597224E-2,8.250147E-3,3.7088953E-2,9.070568E-2,0E0,0E0,3.452155E-2,4.245684E-2,1.8668436E-2,0E0,1.0803534E-1,5.206345E-2,8.6634606E-4,0E0,0E0,0E0,3.2327518E-2,4.5898527E-2,5.1699594E-2,3.7621684E-2,0E0,0E0,0E0,0E0,0E0,0E0,0E0,0E0,0E0,0E0],"parents":[2147483647,0,0,1,1,2,2,3,3,4,4,7,7,8,8,9,9,11,11,12,12,13,13,17,17,18,18,19,19,20,20],"right_children":[2,4,6,8,10,-1,-1,12,14,16,-1,18,20,22,-1,-1,-1,24,26,28,30,-1,-1,-1,-1,-1,-1,-1,-1,-1,-1],"split_conditions":[3.6095E1,2.8E1,2.0135E3,2.3279999E1,9.68535E4,1.0762025E-1,2.5872804E-2,5.8621E4,2.0165E3,2.0145E3,6.2952615E-2,1.1295E1,1.1675E1,2.011E3,1.4421845E-2,-2.0958042E-2,1.2712479E-2,9.469999E0,4.7281E4,7.55E0,2.1615002E1,-1.4202405E-2,-5.5276398E-2,1.4007182E-3,-1.4733523E-2,1.2607418E-2,4.202761E-2,-1.1029056E-2,1.9061718E-2,-3.086962E-2,1.0146475E-2],"split_indices":[1,1,0,1,2,0,0,2,0,0,0,1,1,0,0,0,0,1,2,1,1,0,0,0,0,0,0,0,0,0,0],"split_type":[0,0,0,0,0,0,0,0,0,0,0,0,0,0,0,0,0,0,0,0,0,0,0,0,0,0,0,0,0,0,0],"sum_hessian":[2.4E2,2.38E2,2E0,2.32E2,6E0,1E0,1E0,2.29E2,3E0,4E0,2E0,1.99E2,3E1,2E0,1E0,2E0,2E0,1.73E2,2.6E1,1.9E1,1.1E1,1E0,1E0,1.62E2,1.1E1,2E1,6E0,1.1E1,8E0,9E0,2E0],"tree_param":{"num_deleted":"0","num_feature":"7","num_nodes":"31","size_leaf_vector":"0"}},{"base_weights":[7.3749316E-3,4.271533E-3,2.5215402E-1,2.50318E-3,6.252221E-2,3.04924E-1,7.330704E-2,3.8923023E-3,-7.799715E-2,-1.319294E-2,1.6787338E-1,2.192014E-3,5.774549E-2,-1.3123758E-1,4.0862083E-2,-5.5888176E-2,3.3899944E-2,-1.3384636E-2,7.972402E-3,7.4456134E-3,1.7977238E-1,-4.024017E-2,-1.5661621E-1,-5.846431E-3,-1.1934245E-1,4.5457363E-2,2.5304902E-4,2.5058126E-2,-4.0308475E-2],"categories":[],"categories_nodes":[],"categories_segments":[],"categories_sizes":[],"default_left":[1,1,1,1,1,0,0,1,1,1,0,1,1,1,0,0,0,1,1,1,0,0,0,0,0,0,0,0,0],"id":23,"left_children":[1,3,5,7,9,-1,-1,11,13,15,-1,17,19,21,-1,-1,-1,23,25,27,-1,-1,-1,-1,-1,-1,-1,-1,-1],"loss_changes":[1.8199788E-1,2.4462348E-2,5.9601814E-3,2.6358768E-2,5.80515E-2,0E0,0E0,2.093359E-2,3.0675111E-2,1.1947814E-2,0E0,2.027546E-2,4.162705E-2,6.259084E-4,0E0,0E0,0E0,4.8024904E-2,4.744348E-2,6.0564717E-3,0E0,0E0,0E0,0E0,0E0,0E0,0E0,0E0,0E0],"parents":[2147483647,0,0,1,1,2,2,3,3,4,4,7,7,8,8,9,9,11,11,12,12,13,13,17,17,18,18,19,19],"right_children":[2,4,6,8,10,-1,-1,12,14,16,-1,18,20,22,-1,-1,-1,24,26,28,-1,-1,-1,-1,-1,-1,-1,-1,-1],"split_conditions":[3.6095E1,2.8E1,2.0135E3,2.3279999E1,9.68535E4,9.147721E-2,2.1992112E-2,1.8625E1,2.0165E3,2.0145E3,5.0362017E-2,2.0125E3,2.0165E3,2.011E3,1.2258626E-2,-1.6766453E-2,1.0169984E-2,1.614E1,1.5E0,2.013E3,5.3931717E-2,-1.2072051E-2,-4.6984866E-2,-1.7539294E-3,-3.5802737E-2,1.3637209E-2,7.591471E-5,7.517438E-3,-1.2092543E-2],"split_indices":[1,1,0,1,2,0,0,1,0,0,0,0,0,0,0,0,0,1,3,0,0,0,0,0,0,0,0,0,0],"split_type":[0,0,0,0,0,0,0,0,0,0,0,0,0,0,0,0,0,0,0,0,0,0,0,0,0,0,0,0,0],"sum_hessian":[2.4E2,2.38E2,2E0,2.32E2,6E0,1E0,1E0,2.29E2,3E0,4E0,2E0,2.23E2,6E0,2E0,1E0,2E0,2E0,6E1,1.63E2,5E0,1E0,1E0,1E0,5.7E1,3E0,2.7E1,1.36E2,4E0,1E0],"tree_param":{"num_deleted":"0","num_feature":"7","num_nodes":"29","size_leaf_vector":"0"}},{"base_weights":[5.726571E-3,3.0841413E-3,2.1433131E-1,-3.3087196E-4,2.6886428E-2,2.591858E-1,6.2311172E-2,-1.0954221E-2,1.0811386E-2,-5.9733205E-3,9.320326E-2,-2.1503996E-3,-1.9188285E-1,1.710341E-1,5.9452513E-3,1.8942788E-3,-8.1662655E-2,1.1887884E-1,-6.3327155E-3,-1.2442065E-2,3.6774993E-2,-3.1023106E-2,-2.8878164E-1,1.9708991E-2,2.3684216E-1,2.6352215E-3,5.0017767E-2,-2.0411726E-2,1.2911975E-2,1.9891107E-1,3.107729E-2,-4.00517E-2,3.0552626E-2,-8.750479E-4,-1.3790181E-1,2.167365E-1,-2.8904065E-2,1.373081E-2,-1.9638307E-2,2.2438366E-3,1.6833067E-1,-2.6274452E-2,7.3823184E-3,-1.76085E-2,2.6881015E-2,-7.323059E-2,1.2502606E-1],"categories":[],"categories_nodes":[],"categories_segments":[],"categories_sizes":[],"default_left":[1,1,1,1,1,0,0,1,1,1,1,1,1,1,1,1,0,1,1,1,1,0,0,0,0,1,1,1,1,0,1,0,0,0,0,0,0,0,0,0,0,0,0,0,0,0,0],"id":24,"left_children":[1,3,5,7,9,-1,-1,11,13,15,17,19,21,23,25,27,-1,29,31,33,35,-1,-1,-1,-1,37,39,41,43,-1,45,-1,-1,-1,-1,-1,-1,-1,-1,-1,-1,-1,-1,-1,-1,-1,-1],"loss_changes":[1.3218382E-1,1.943604E-2,4.3061823E-3,2.4975726E-2,6.5931365E-2,0E0,0E0,1.716166E-1,7.928866E-2,1.2660053E-2,2.6309267E-2,4.2120695E-2,6.8976685E-2,2.5207318E-2,1.46022085E-2,5.178772E-3,0E0,5.0034016E-2,4.954893E-3,1.2032852E-1,2.6629803E-1,0E0,0E0,0E0,0E0,2.3747751E-2,3.91882E-2,1.3346083E-3,6.4421184E-3,0E0,5.815372E-2,0E0,0E0,0E0,0E0,0E0,0E0,0E0,0E0,0E0,0E0,0E0,0E0,0E0,0E0,0E0,0E0],"parents":[2147483647,0,0,1,1,2,2,3,3,4,4,7,7,8,8,9,9,10,10,11,11,12,12,13,13,14,14,15,15,17,17,18,18,19,19,20,20,25,25,26,26,27,27,28,28,30,30],"right_children":[2,4,6,8,10,-1,-1,12,14,16,18,20,22,24,26,28,-1,30,32,34,36,-1,-1,-1,-1,38,40,42,44,-1,46,-1,-1,-1,-1,-1,-1,-1,-1,-1,-1,-1,-1,-1,-1,-1,-1],"split_conditions":[3.6095E1,2.0165E3,2.0135E3,3.7027E4,7.6150002E0,7.775574E-2,1.8693352E-2,3.58875E4,3.83E4,6.81E0,1.81705E4,2.96115E4,8.2E0,2.0125E3,2.717E1,8.4000003E-1,-2.4498798E-2,9.625E0,8.995E0,2.79E4,3.15155E4,-9.306932E-3,-8.6634494E-2,5.9126974E-3,7.105265E-2,5.8621E4,1.198535E5,1.34E4,5E-1,5.9673324E-2,1.557E1,-1.201551E-2,9.165788E-3,-2.6251437E-4,-4.1370545E-2,6.502095E-2,-8.67122E-3,4.119243E-3,-5.8914926E-3,6.73151E-4,5.0499205E-2,-7.882336E-3,2.2146956E-3,-5.28255E-3,8.0643045E-3,-2.1969177E-2,3.750782E-2],"split_indices":[1,0,0,2,1,0,0,2,2,1,2,2,1,0,1,1,0,1,1,2,2,0,0,0,0,2,2,2,4,0,1,0,0,0,0,0,0,0,0,0,0,0,0,0,0,0,0],"split_type":[0,0,0,0,0,0,0,0,0,0,0,0,0,0,0,0,0,0,0,0,0,0,0,0,0,0,0,0,0,0,0,0,0,0,0,0,0,0,0,0,0,0,0,0,0,0,0],"sum_hessian":[2.4E2,2.38E2,2E0,2.09E2,2.9E1,1E0,1E0,1.07E2,1.02E2,2E1,9E0,1.03E2,4E0,2E0,1E2,1.9E1,1E0,7E0,2E0,8.2E1,2.1E1,2E0,2E0,1E0,1E0,9.4E1,6E0,6E0,1.3E1,3E0,4E0,1E0,1E0,7.6E1,6E0,5E0,1.6E1,6.3E1,3.1E1,5E0,1E0,5E0,1E0,4E0,9E0,2E0,2E0],"tree_param":{"num_deleted":"0","num_feature":"7","num_nodes":"47","size_leaf_vector":"0"}},{"base_weights":[4.782738E-3,2.535954E-3,1.8218231E-1,-4.161126E-3,1.2048603E-2,2.203083E-1,5.2965164E-2,-4.713728E-4,-7.472621E-2,1.579864E-1,8.947336E-3,1.0627202E-2,-8.718115E-3,9.255886E-3,-1.1017022E-1,-1.6774845E-1,1.4375878E-2,-2.1253337E-4,1.5701675E-1,-6.2264394E-2,9.58093E-3,8.3297014E-2,-6.9413185E-2,-1.5272069E-1,-6.135243E-2,1.3743849E-1,7.531433E-3,-2.5415482E-2,1.1731299E-2,1.7984565E-1,4.426503E-2,-1.6988706E-2,-1.6507621E-1,1.07949585E-1,-3.5919286E-3,1.2356281E-2,1.6561997E-1,-6.1791204E-2,1.6738964E-2],"categories":[],"categories_nodes":[],"categories_segments":[],"categories_sizes":[],"default_left":[1,1,1,1,1,0,0,1,1,0,1,1,1,1,1,0,1,1,1,1,1,0,0,0,0,1,1,0,0,0,0,0,0,0,0,0,0,0,0],"id":25,"left_children":[1,3,5,7,9,-1,-1,11,13,-1,15,17,19,21,23,-1,25,27,29,31,33,-1,-1,-1,-1,35,37,-1,-1,-1,-1,-1,-1,-1,-1,-1,-1,-1,-1],"loss_changes":[9.559544E-2,1.5276101E-2,3.1109229E-3,3.6676627E-2,4.3393064E-2,0E0,0E0,1.2448806E-2,2.185636E-2,0E0,9.641317E-2,9.206916E-2,7.702452E-2,2.3256153E-2,1.0163151E-3,0E0,7.982524E-2,1.6854243E-2,2.3351163E-3,9.02931E-2,7.6839745E-2,0E0,0E0,0E0,0E0,1.55785605E-2,5.975703E-2,0E0,0E0,0E0,0E0,0E0,0E0,0E0,0E0,0E0,0E0,0E0,0E0],"parents":[2147483647,0,0,1,1,2,2,3,3,4,4,7,7,8,8,10,10,11,11,12,12,13,13,14,14,16,16,17,17,18,18,19,19,20,20,25,25,26,26],"right_children":[2,4,6,8,10,-1,-1,12,14,-1,16,18,20,22,24,-1,26,28,30,32,34,-1,-1,-1,-1,36,38,-1,-1,-1,-1,-1,-1,-1,-1,-1,-1,-1,-1],"split_conditions":[3.6095E1,7.175E0,2.0135E3,6.975E0,3.7175E3,6.609249E-2,1.588955E-2,1.95E4,3.45E4,4.7395922E-2,6.95E3,6.15E0,2.8241E4,2.0155E3,3.5527E4,-5.0324537E-2,9.995E3,2.0145E3,2.0155E3,4.19E0,3.15155E4,2.4989106E-2,-2.0823956E-2,-4.581621E-2,-1.840573E-2,1.5E0,1.9131E4,-7.624645E-3,3.5193898E-3,5.3953696E-2,1.327951E-2,-5.096612E-3,-4.9522866E-2,3.2384876E-2,-1.0775786E-3,3.7068846E-3,4.9685992E-2,-1.8537361E-2,5.0216895E-3],"split_indices":[1,1,0,1,2,0,0,2,2,0,2,1,2,0,2,0,2,0,0,1,2,0,0,0,0,3,2,0,0,0,0,0,0,0,0,0,0,0,0],"split_type":[0,0,0,0,0,0,0,0,0,0,0,0,0,0,0,0,0,0,0,0,0,0,0,0,0,0,0,0,0,0,0,0,0,0,0,0,0,0,0],"sum_hessian":[2.4E2,2.38E2,2E0,1.4E2,9.8E1,1E0,1E0,1.34E2,6E0,1E0,9.7E1,5.7E1,7.7E1,2E0,4E0,2E0,9.5E1,5.4E1,3E0,1.9E1,5.8E1,1E0,1E0,1E0,3E0,4E0,9.1E1,1.7E1,3.7E1,2E0,1E0,1.4E1,5E0,6E0,5.2E1,1E0,3E0,1E1,8.1E1],"tree_param":{"num_deleted":"0","num_feature":"7","num_nodes":"39","size_leaf_vector":"0"}},{"base_weights":[3.7574181E-3,1.8450733E-3,1.5485509E-1,-1.8321108E-2,4.607984E-3,1.8726158E-1,4.5021057E-2,-2.7130565E-2,4.3520637E-2,6.0061878E-3,-5.4199237E-2,-1.9590681E-2,-4.899839E-2,1.0868758E-2,5.0781675E-2,4.670585E-3,1.4057016E-1,-6.540385E-2,-4.690394E-3,9.390335E-3,-2.3135543E-2,8.286741E-3,-1.7686183E-2,-4.672289E-3,1.875779E-2,1.8695146E-3,-2.4628576E-2,4.3387464E-3,6.253909E-2,-6.806728E-2,4.747917E-3],"categories":[],"categories_nodes":[],"categories_segments":[],"categories_sizes":[],"default_left":[1,1,1,1,1,0,0,1,1,1,1,1,0,0,0,1,0,0,0,1,1,1,1,0,0,0,0,0,0,0,0],"id":26,"left_children":[1,3,5,7,9,-1,-1,11,13,15,17,19,-1,-1,-1,21,-1,-1,-1,23,25,27,29,-1,-1,-1,-1,-1,-1,-1,-1],"loss_changes":[6.9351435E-2,1.3400872E-2,2.2472963E-3,1.6979711E-2,1.7674891E-2,0E0,0E0,3.3269897E-3,3.964128E-4,3.6546323E-2,2.4668658E-3,2.3746584E-3,0E0,0E0,0E0,1.6800743E-2,0E0,0E0,0E0,4.8283482E-4,7.553771E-4,3.785412E-2,3.3100568E-2,0E0,0E0,0E0,0E0,0E0,0E0,0E0,0E0],"parents":[2147483647,0,0,1,1,2,2,3,3,4,4,7,7,8,8,9,9,10,10,11,11,15,15,19,19,20,20,21,21,22,22],"right_children":[2,4,6,8,10,-1,-1,12,14,16,18,20,-1,-1,-1,22,-1,-1,-1,24,26,28,30,-1,-1,-1,-1,-1,-1,-1,-1],"split_conditions":[3.6095E1,6.85E-1,2.0135E3,5.4E4,1.35077E5,5.6178477E-2,1.35063175E-2,3.25E4,2.0065E3,1.31E5,2.008E3,2.011E3,-1.4699518E-2,3.2606276E-3,1.5234503E-2,5.8621E4,4.217105E-2,-1.9621156E-2,-1.4071182E-3,2.009E3,4.9E-1,5.2566E4,6.4766E4,-1.4016867E-3,5.6273374E-3,5.608544E-4,-7.388573E-3,1.301624E-3,1.8761728E-2,-2.0420186E-2,1.4243751E-3],"split_indices":[1,1,0,2,2,0,0,2,0,2,0,0,0,0,0,2,0,0,0,0,1,2,2,0,0,0,0,0,0,0,0],"split_type":[0,0,0,0,0,0,0,0,0,0,0,0,0,0,0,0,0,0,0,0,0,0,0,0,0,0,0,0,0,0,0],"sum_hessian":[2.4E2,2.38E2,2E0,2.8E1,2.1E2,1E0,1E0,2.5E1,3E0,2.06E2,4E0,2E1,5E0,1E0,2E0,2.05E2,1E0,3E0,1E0,2E0,1.8E1,1.77E2,2.8E1,1E0,1E0,1E0,1.7E1,1.66E2,1.1E1,8E0,2E1],"tree_param":{"num_deleted":"0","num_feature":"7","num_nodes":"31","size_leaf_vector":"0"}},{"base_weights":[3.0164176E-3,1.3894486E-3,1.3162613E-1,-1.0814979E-3,1.863976E-2,1.5917206E-1,3.8267136E-2,-1.8636595E-2,2.0628856E-3,-7.0944005E-3,7.0817515E-2,5.705736E-3,-5.034143E-2,7.1759105E-2,-1.1907924E-3,-1.4839113E-3,-5.965209E-2,9.21213E-2,-9.598414E-3,-1.454937E-2,5.2016694E-2,3.0748115E-3,-1.2207556E-1,1.6079897E-2,1.591978E-1,-1.176012E-1,1.5715297E-3,-2.1557044E-2,1.09829325E-2,1.505996E-1,2.6914407E-2,-3.7205696E-2,2.2808075E-2,2.0116752E-2,-3.0427495E-2,-1.2687826E-1,1.1317134E-1,-1.3454293E-2,4.0617783E-2,-1.9838302E-1,-3.4326077E-2,-8.049853E-3,4.2892933E-2,-8.321662E-3,-2.2271991E-1,4.8357014E-2,-3.637129E-3,2.7028099E-3,-3.665352E-2,-2.6986236E-3,3.341315E-2,1.6994555E-1,4.628086E-2,-7.572174E-2,7.150388E-2],"categories":[],"categories_nodes":[],"categories_segments":[],"categories_sizes":[],"default_left":[1,1,1,1,1,0,0,1,1,1,1,1,1,1,1,1,0,1,1,1,1,1,1,1,0,1,1,1,1,1,1,0,0,0,0,0,0,0,0,0,0,0,0,0,0,0,0,0,0,0,0,0,0,0,0],"id":27,"left_children":[1,3,5,7,9,-1,-1,11,13,15,17,19,21,23,25,27,-1,29,31,33,35,37,39,41,-1,43,45,47,49,51,53,-1,-1,-1,-1,-1,-1,-1,-1,-1,-1,-1,-1,-1,-1,-1,-1,-1,-1,-1,-1,-1,-1,-1,-1],"loss_changes":[5.0244913E-2,1.0207437E-2,1.6239248E-3,1.1630436E-2,4.0784933E-2,0E0,0E0,2.4983868E-2,4.067711E-2,6.103843E-3,1.801585E-2,1.8579444E-2,5.4020103E-2,3.638826E-2,5.5493657E-2,5.2417316E-3,0E0,2.6452214E-2,3.5325557E-3,8.318164E-3,8.000053E-2,6.131449E-3,3.3365935E-2,4.227233E-3,0E0,4.40959E-2,4.135942E-2,3.028974E-3,4.079613E-3,2.0735711E-4,2.8296856E-2,0E0,0E0,0E0,0E0,0E0,0E0,0E0,0E0,0E0,0E0,0E0,0E0,0E0,0E0,0E0,0E0,0E0,0E0,0E0,0E0,0E0,0E0,0E0,0E0],"parents":[2147483647,0,0,1,1,2,2,3,3,4,4,7,7,8,8,9,9,10,10,11,11,12,12,13,13,14,14,15,15,17,17,18,18,19,19,20,20,21,21,22,22,23,23,25,25,26,26,27,27,28,28,29,29,30,30],"right_children":[2,4,6,8,10,-1,-1,12,14,16,18,20,22,24,26,28,-1,30,32,34,36,38,40,42,-1,44,46,48,50,52,54,-1,-1,-1,-1,-1,-1,-1,-1,-1,-1,-1,-1,-1,-1,-1,-1,-1,-1,-1,-1,-1,-1,-1,-1],"split_conditions":[3.6095E1,2.0165E3,2.0135E3,1.42325E4,7.6150002E0,4.775162E-2,1.1480141E-2,9.405E3,1.655E4,6.81E0,1.81705E4,3.275E0,5.165E0,5.165E0,1.725E4,3.75E3,-1.7895628E-2,9.625E0,8.995E0,5.2E3,4.6E3,2.83E0,1.1E1,1.245E0,4.7759343E-2,2.0155E3,2.25E4,1.7175E3,1.625E0,1.5071E4,1.1175E1,-1.1161709E-2,6.8424228E-3,6.0350257E-3,-9.128249E-3,-3.806348E-2,3.39514E-2,-4.0362882E-3,1.2185335E-2,-5.9514906E-2,-1.0297824E-2,-2.414956E-3,1.286788E-2,-2.4964989E-3,-6.681597E-2,1.4507105E-2,-1.0911387E-3,8.10843E-4,-1.0996056E-2,-8.0958713E-4,1.0023945E-2,5.0983667E-2,1.3884258E-2,-2.2716522E-2,2.1451164E-2],"split_indices":[1,0,0,2,1,0,0,2,2,1,2,1,1,1,2,2,0,1,1,2,2,1,1,1,0,0,2,2,1,2,1,0,0,0,0,0,0,0,0,0,0,0,0,0,0,0,0,0,0,0,0,0,0,0,0],"split_type":[0,0,0,0,0,0,0,0,0,0,0,0,0,0,0,0,0,0,0,0,0,0,0,0,0,0,0,0,0,0,0,0,0,0,0,0,0,0,0,0,0,0,0,0,0,0,0,0,0,0,0,0,0,0,0],"sum_hessian":[2.4E2,2.38E2,2E0,2.09E2,2.9E1,1E0,1E0,3.1E1,1.78E2,2E1,9E0,1.8E1,1.3E1,7E0,1.71E2,1.9E1,1E0,7E0,2E0,1.3E1,5E0,8E0,5E0,5E0,2E0,3E0,1.68E2,7E0,1.2E1,3E0,4E0,1E0,1E0,4E0,9E0,1E0,4E0,6E0,2E0,2E0,3E0,3E0,2E0,2E0,1E0,1.6E1,1.52E2,3E0,4E0,8E0,4E0,2E0,1E0,1E0,3E0],"tree_param":{"num_deleted":"0","num_feature":"7","num_nodes":"55","size_leaf_vector":"0"}},{"base_weights":[2.24878E-3,8.63215E-4,1.1188253E-1,-4.3876814E-3,8.333045E-3,1.3529587E-1,3.2527924E-2,9.806693E-4,-4.3602746E-2,6.7817345E-2,3.766129E-3,-1.1446276E-2,2.0488711E-2,3.3813525E-2,-7.002418E-2,-1.5377164E-2,1.3405752E-1,-2.4375548E-3,5.550046E-2,2.2259434E-3,-6.810651E-2,1.5934879E-1,1.1189372E-2,1.05189085E-1,-4.883321E-2,-1.1950127E-1,-2.4163336E-2,-2.9260477E-2,1.3136387E-2,-6.860447E-2,7.431008E-3,7.243508E-2,-8.158684E-3,-7.7456785E-3,1.8752566E-2,-2.1691909E-2,-1.5659733E-1,2.2325814E-1,1.5765041E-2,9.762401E-2,5.178411E-3,2.1814227E-2,1.359694E-1,-1.4365283E-1,6.2823296E-4,7.069707E-2,-4.7814403E-2,-3.6898375E-2,-6.99234E-3,-1.1008276E-1,3.1860352E-3,1.0908337E-1,-8.32214E-3,1.2163675E-1,1.858673E-2,-3.1624794E-2,1.9386768E-2],"categories":[],"categories_nodes":[],"categories_segments":[],"categories_sizes":[],"default_left":[1,1,1,1,1,0,0,1,1,1,1,1,1,1,1,1,0,1,1,1,1,1,1,1,0,1,1,1,0,1,1,1,1,0,0,0,0,0,0,0,0,0,0,0,0,0,0,0,0,0,0,0,0,0,0,0,0],"id":28,"left_children":[1,3,5,7,9,-1,-1,11,13,15,17,19,21,23,25,27,-1,29,31,33,35,37,39,41,-1,43,45,47,-1,49,51,53,55,-1,-1,-1,-1,-1,-1,-1,-1,-1,-1,-1,-1,-1,-1,-1,-1,-1,-1,-1,-1,-1,-1,-1,-1],"loss_changes":[3.6512446E-2,9.410932E-3,1.1729784E-3,2.972611E-2,2.6638914E-2,0E0,0E0,3.0537691E-2,3.7140395E-2,4.0637154E-2,2.9983023E-2,5.980128E-2,6.1491027E-2,3.463151E-2,2.661024E-2,1.967827E-3,0E0,5.535948E-2,1.1371411E-2,1.0527477E-2,5.821211E-2,2.4009354E-2,2.3913562E-2,4.7328435E-3,0E0,1.7498128E-2,2.1328738E-2,2.5223917E-4,0E0,3.3105943E-2,1.1940731E-1,1.89346E-2,2.5522565E-3,0E0,0E0,0E0,0E0,0E0,0E0,0E0,0E0,0E0,0E0,0E0,0E0,0E0,0E0,0E0,0E0,0E0,0E0,0E0,0E0,0E0,0E0,0E0,0E0],"parents":[2147483647,0,0,1,1,2,2,3,3,4,4,7,7,8,8,9,9,10,10,11,11,12,12,13,13,14,14,15,15,17,17,18,18,19,19,20,20,21,21,22,22,23,23,25,25,26,26,27,27,29,29,30,30,31,31,32,32],"right_children":[2,4,6,8,10,-1,-1,12,14,16,18,20,22,24,26,28,-1,30,32,34,36,38,40,42,-1,44,46,48,-1,50,52,54,56,-1,-1,-1,-1,-1,-1,-1,-1,-1,-1,-1,-1,-1,-1,-1,-1,-1,-1,-1,-1,-1,-1,-1,-1],"split_conditions":[3.6095E1,7.175E0,2.0135E3,6.625E0,7.55E0,4.0588763E-2,9.758377E-3,2.8641E4,3.23115E4,2.0145E3,2.0165E3,2.25E4,3.05E4,2.0145E3,6.835E0,2.012E3,4.0217258E-2,1.9131E4,1.81705E4,1.42325E4,4.19E0,2.014E3,5E-1,2.0125E3,-1.4649964E-2,5E-1,3.45E4,2.0095E3,3.940916E-3,1.09E1,2.80845E4,9.625E0,8.995E0,-2.3237036E-3,5.62577E-3,-6.507573E-3,-4.69792E-2,6.697744E-2,4.7295126E-3,2.9287204E-2,1.5535234E-3,6.544268E-3,4.0790822E-2,-4.309585E-2,1.884699E-4,2.120912E-2,-1.4344322E-2,-1.1069513E-2,-2.0977021E-3,-3.302483E-2,9.558106E-4,3.2725014E-2,-2.496642E-3,3.6491025E-2,5.576019E-3,-9.487439E-3,5.816031E-3],"split_indices":[1,1,0,1,1,0,0,2,2,0,0,2,2,0,1,0,0,2,2,2,1,0,5,0,0,6,2,0,0,1,2,1,1,0,0,0,0,0,0,0,0,0,0,0,0,0,0,0,0,0,0,0,0,0,0,0,0],"split_type":[0,0,0,0,0,0,0,0,0,0,0,0,0,0,0,0,0,0,0,0,0,0,0,0,0,0,0,0,0,0,0,0,0,0,0,0,0,0,0,0,0,0,0,0,0,0,0,0,0,0,0,0,0,0,0,0,0],"sum_hessian":[2.4E2,2.38E2,2E0,1.4E2,9.8E1,1E0,1E0,1.24E2,1.6E1,6E0,9.2E1,7.6E1,4.8E1,4E0,1.2E1,3E0,3E0,8.3E1,9E0,6.2E1,1.4E1,2E0,4.6E1,2E0,2E0,5E0,7E0,2E0,1E0,1E1,7.3E1,7E0,2E0,3.9E1,2.3E1,1E1,4E0,1E0,1E0,2E0,4.4E1,1E0,1E0,4E0,1E0,1E0,6E0,1E0,1E0,6E0,4E0,9E0,6.4E1,3E0,4E0,1E0,1E0],"tree_param":{"num_deleted":"0","num_feature":"7","num_nodes":"57","size_leaf_vector":"0"}},{"base_weights":[2.2666918E-3,9.5991425E-5,5.8211856E-2,1.1832152E-3,-6.2443376E-2,9.200096E-2,1.278038E-2,1.974916E-5,3.82451E-2,-9.06469E-2,1.1083603E-2,-3.2969475E-2,3.2460213E-2,1.1018206E-3,-3.368187E-2,1.2937586E-2,9.504509E-2,-2.2164583E-2,-1.1380577E-1,9.787096E-6,7.936096E-2,-8.722627E-2,2.8283E-2,4.9817443E-2,-4.4018747E-3,-5.006079E-3,1.2000689E-2,6.3905E-2,-4.8926673E-3,1.570193E-2,-2.3038387E-2],"categories":[],"categories_nodes":[],"categories_segments":[],"categories_sizes":[],"default_left":[1,1,1,1,1,0,1,1,1,1,0,0,0,1,1,1,0,0,0,1,0,0,1,0,1,0,0,0,0,0,0],"id":29,"left_children":[1,3,5,7,9,-1,11,13,15,17,-1,-1,-1,19,21,23,-1,-1,-1,25,-1,-1,27,-1,29,-1,-1,-1,-1,-1,-1],"loss_changes":[2.9261496E-2,1.5916552E-2,1.2639996E-2,9.916902E-3,9.299574E-3,0E0,5.5719437E-3,8.205845E-3,8.832611E-3,2.235461E-3,0E0,0E0,0E0,1.8629855E-2,2.5692124E-2,4.0561515E-3,0E0,0E0,0E0,1.3051344E-2,0E0,0E0,5.0398E-3,0E0,2.2350713E-3,0E0,0E0,0E0,0E0,0E0,0E0],"parents":[2147483647,0,0,1,1,2,2,3,3,4,4,6,6,7,7,8,8,9,9,13,13,14,14,15,15,19,19,22,22,24,24],"right_children":[2,4,6,8,10,-1,12,14,16,18,-1,-1,-1,20,22,24,-1,-1,-1,26,-1,-1,28,-1,30,-1,-1,-1,-1,-1,-1],"split_conditions":[2.8E1,2.3279999E1,2.0135E3,1.8625E1,2.0165E3,2.760029E-2,2.0145E3,1.7315E1,2.0165E3,2.011E3,3.325081E-3,-9.890843E-3,9.738064E-3,1.484E1,2.0125E3,2.009E3,2.8513528E-2,-6.6493754E-3,-3.4141734E-2,4.37675E4,2.380829E-2,-2.6167883E-2,4.25005E4,1.4945233E-2,2.068E1,-1.5018238E-3,3.600207E-3,1.91715E-2,-1.4678002E-3,4.710579E-3,-6.9115167E-3],"split_indices":[1,1,0,1,0,0,0,1,0,0,0,0,0,1,0,0,0,0,0,2,0,0,2,0,1,0,0,0,0,0,0],"split_type":[0,0,0,0,0,0,0,0,0,0,0,0,0,0,0,0,0,0,0,0,0,0,0,0,0,0,0,0,0,0,0],"sum_hessian":[2.4E2,2.32E2,8E0,2.29E2,3E0,4E0,4E0,2.23E2,6E0,2E0,1E0,1E0,3E0,2.17E2,6E0,5E0,1E0,1E0,1E0,2.15E2,2E0,3E0,3E0,1E0,4E0,1.52E2,6.3E1,1E0,2E0,2E0,2E0],"tree_param":{"num_deleted":"0","num_feature":"7","num_nodes":"31","size_leaf_vector":"0"}},{"base_weights":[1.7887462E-3,9.528492E-4,1.0120201E-1,-1.4312798E-2,3.03658E-3,-1.9827023E-2,2.510786E-2,4.0785116E-3,-4.0915094E-2,-1.3809666E-2,-3.7583265E-2,5.4315277E-3,4.206843E-2,3.0597786E-3,1.0747814E-1,-4.8134804E-2,-6.018132E-3,-2.9675305E-2,-1.0577741E-2,-4.1186593E-2,-9.783313E-3,7.207148E-3,9.4014406E-4,1.0049038E-2,-3.440089E-3,-1.5026998E-2,4.885578E-3,1.4131572E-3,1.0918502E-1,-6.732114E-2,5.2463035E-3],"categories":[],"categories_nodes":[],"categories_segments":[],"categories_sizes":[],"default_left":[1,1,0,1,1,1,1,1,1,1,1,1,0,1,0,0,0,0,1,0,0,0,0,1,1,0,0,0,0,0,0],"id":30,"left_children":[1,3,-1,5,7,9,11,13,15,17,19,21,-1,23,-1,-1,-1,-1,25,-1,-1,-1,-1,27,29,-1,-1,-1,-1,-1,-1],"loss_changes":[1.993049E-2,7.677742E-3,0E0,6.8016695E-3,9.875338E-3,2.258975E-3,1.1063912E-3,2.1581162E-2,9.700479E-4,7.629106E-4,1.9809324E-4,1.7149214E-5,0E0,9.438426E-3,0E0,0E0,0E0,0E0,1.3806208E-3,0E0,0E0,0E0,0E0,8.545835E-2,6.028194E-2,0E0,0E0,0E0,0E0,0E0,0E0],"parents":[2147483647,0,0,1,1,3,3,4,4,5,5,6,6,7,7,8,8,9,9,10,10,11,11,13,13,18,18,23,23,24,24],"right_children":[2,4,-1,6,8,10,12,14,16,18,20,22,-1,24,-1,-1,-1,-1,26,-1,-1,-1,-1,28,30,-1,-1,-1,-1,-1,-1],"split_conditions":[6.4415E1,6.85E-1,3.0360604E-2,5.4E4,1.35077E5,3.25E4,2.01E3,1.31E5,2.008E3,1.6E3,5E-1,2.0065E3,1.2620529E-2,3.2661E4,3.2243446E-2,-1.44404415E-2,-1.8054397E-3,-8.902592E-3,2.0165E3,-1.2355979E-2,-2.934994E-3,2.1621445E-3,2.8204324E-4,2.96115E4,3.6027E4,-4.5080995E-3,1.4656734E-3,4.2394717E-4,3.2755505E-2,-2.0196341E-2,1.5738911E-3],"split_indices":[1,1,0,2,2,2,0,2,0,2,6,0,0,2,0,0,0,0,0,0,0,0,0,2,2,0,0,0,0,0,0],"split_type":[0,0,0,0,0,0,0,0,0,0,0,0,0,0,0,0,0,0,0,0,0,0,0,0,0,0,0,0,0,0,0],"sum_hessian":[2.4E2,2.39E2,1E0,2.8E1,2.11E2,2.5E1,3E0,2.07E2,4E0,2E1,5E0,2E0,1E0,2.06E2,1E0,3E0,1E0,2E0,1.8E1,4E0,1E0,1E0,1E0,9.9E1,1.07E2,1.4E1,4E0,9.2E1,7E0,1.2E1,9.5E1],"tree_param":{"num_deleted":"0","num_feature":"7","num_nodes":"31","size_leaf_vector":"0"}},{"base_weights":[1.4543729E-3,5.5784744E-4,7.2392784E-2,7.3386356E-3,-3.1642483E-3,8.602142E-2,2.2567749E-2,3.475107E-3,8.470631E-2,-4.625701E-2,1.4425297E-3,-3.7196295E-3,1.5431597E-2,2.5589949E-2,1.310277E-1,-1.753837E-2,-8.6411916E-2,8.6849526E-2,-2.3360327E-3,1.0096159E-2,-3.0377017E-2,5.2455835E-2,-1.0712965E-2,8.371666E-3,-2.5062338E-2,-1.1605258E-1,3.089571E-2,-3.9056152E-2,1.595664E-1,-8.754834E-2,2.2702918E-3,2.3748176E-3,6.934285E-2,6.512026E-3,-8.92758E-2,-5.391866E-3,7.876502E-2,-9.3397215E-2,1.0627657E-2,1.3711676E-2,-1.1541769E-3,-3.4045517E-2,1.2581348E-3,1.3711676E-2,-7.2295904E-2,5.92947E-4,2.123599E-1,2.30606E-2,-1.3640404E-1,2.0797642E-1,-2.5686822E-3],"categories":[],"categories_nodes":[],"categories_segments":[],"categories_sizes":[],"default_left":[1,1,1,1,1,0,0,1,1,1,1,1,1,0,0,1,1,1,1,1,1,1,1,1,1,0,0,1,1,1,1,0,0,0,0,0,0,0,0,0,0,0,0,0,0,0,0,0,0,0,0],"id":31,"left_children":[1,3,5,7,9,-1,-1,11,13,15,17,19,21,-1,-1,23,25,27,29,31,33,35,37,39,41,-1,-1,43,45,47,49,-1,-1,-1,-1,-1,-1,-1,-1,-1,-1,-1,-1,-1,-1,-1,-1,-1,-1,-1,-1],"loss_changes":[1.5286757E-2,6.055281E-3,9.583309E-5,2.5113175E-2,3.0837143E-2,0E0,0E0,7.111351E-3,7.6004136E-3,1.578239E-2,4.5705795E-2,1.9457916E-2,3.0569414E-2,0E0,0E0,2.1592765E-3,2.4447985E-2,6.1164852E-2,5.3580873E-2,1.5846562E-2,3.9690323E-2,2.020973E-2,3.451873E-2,1.6843E-4,1.9343663E-3,0E0,0E0,6.253267E-3,3.3445142E-2,4.09727E-2,1.2993708E-1,0E0,0E0,0E0,0E0,0E0,0E0,0E0,0E0,0E0,0E0,0E0,0E0,0E0,0E0,0E0,0E0,0E0,0E0,0E0,0E0],"parents":[2147483647,0,0,1,1,2,2,3,3,4,4,7,7,8,8,9,9,10,10,11,11,12,12,15,15,16,16,17,17,18,18,19,19,20,20,21,21,22,22,23,23,24,24,27,27,28,28,29,29,30,30],"right_children":[2,4,6,8,10,-1,-1,12,14,16,18,20,22,-1,-1,24,26,28,30,32,34,36,38,40,42,-1,-1,44,46,48,50,-1,-1,-1,-1,-1,-1,-1,-1,-1,-1,-1,-1,-1,-1,-1,-1,-1,-1,-1,-1],"split_conditions":[3.6095E1,2.25E4,2.0135E3,2.145E4,2.5435E4,2.5806429E-2,6.770325E-3,1.42325E4,7.985E0,4.19E0,2.79E4,9.405E3,1.655E4,7.6769846E-3,3.930831E-2,2.0125E3,1.4245001E1,2.0145E3,2.96115E4,1.0825001E1,5.165E0,1.245E0,1.725E4,2.0115E3,2.45E4,-3.4815777E-2,9.268713E-3,2.012E3,2.5935E4,5.0649996E0,3.08765E4,7.124453E-4,2.0802855E-2,1.953608E-3,-2.6782742E-2,-1.6175598E-3,2.3629507E-2,-2.8019166E-2,3.1882974E-3,4.113503E-3,-3.4625307E-4,-1.0213655E-2,3.7744048E-4,4.113503E-3,-2.1688772E-2,1.7788411E-4,6.370798E-2,6.9181803E-3,-4.092121E-2,6.2392928E-2,-7.706047E-4],"split_indices":[1,2,0,2,2,0,0,2,1,1,2,2,2,0,0,0,1,0,2,1,1,1,2,0,2,0,0,0,2,1,2,0,0,0,0,0,0,0,0,0,0,0,0,0,0,0,0,0,0,0,0],"split_type":[0,0,0,0,0,0,0,0,0,0,0,0,0,0,0,0,0,0,0,0,0,0,0,0,0,0,0,0,0,0,0,0,0,0,0,0,0,0,0,0,0,0,0,0,0,0,0,0,0,0,0],"sum_hessian":[2.4E2,2.38E2,2E0,8.4E1,1.54E2,1E0,1E0,8.1E1,3E0,1.4E1,1.4E2,5.1E1,3E1,2E0,1E0,9E0,5E0,5E0,1.35E2,3.4E1,1.7E1,1.2E1,1.8E1,2E0,7E0,4E0,1E0,2E0,3E0,6E0,1.29E2,3.1E1,3E0,1.1E1,6E0,4E0,8E0,3E0,1.5E1,1E0,1E0,5E0,2E0,1E0,1E0,1E0,2E0,2E0,4E0,2E0,1.27E2],"tree_param":{"num_deleted":"0","num_feature":"7","num_nodes":"51","size_leaf_vector":"0"}},{"base_weights":[1.4983063E-3,7.3845603E-4,6.153361E-2,-1.4468024E-3,1.1022806E-2,7.311821E-2,1.9182205E-2,6.2526297E-4,-8.155358E-2,1.269099E-1,2.0557046E-3,-4.6763278E-4,7.036217E-2,-9.5179945E-2,-1.35240555E-2,-9.932518E-3,2.0029736E-1,-2.6128212E-2,2.4023306E-2,3.3443107E-3,-2.4934053E-2,4.2802026E-3,-2.7153563E-1,9.7144805E-2,-7.4986853E-3,-6.4503204E-4,8.271313E-2,2.6133478E-2,-4.5123853E-2,4.87653E-2,-3.1735897E-2,-5.7839632E-2,1.3261549E-1,-2.3056576E-2,4.88286E-2],"categories":[],"categories_nodes":[],"categories_segments":[],"categories_sizes":[],"default_left":[1,1,1,1,1,0,0,1,1,1,1,1,0,0,0,0,0,1,1,1,1,1,0,1,1,0,0,0,0,0,0,0,0,0,0],"id":32,"left_children":[1,3,5,7,9,-1,-1,11,13,15,17,19,-1,-1,-1,-1,-1,21,23,25,27,29,-1,31,33,-1,-1,-1,-1,-1,-1,-1,-1,-1,-1],"loss_changes":[1.0948461E-2,5.3872247E-3,6.930437E-5,3.291631E-2,4.33843E-2,0E0,0E0,1.4818647E-2,3.347762E-3,3.2117005E-2,2.5393007E-2,1.7990194E-2,0E0,0E0,0E0,0E0,0E0,1.3548635E-1,5.3741977E-2,5.2930463E-2,2.7986364E-2,2.8784666E-2,0E0,4.615225E-2,1.6023492E-2,0E0,0E0,0E0,0E0,0E0,0E0,0E0,0E0,0E0,0E0],"parents":[2147483647,0,0,1,1,2,2,3,3,4,4,7,7,8,8,9,9,10,10,11,11,17,17,18,18,19,19,20,20,21,21,23,23,24,24],"right_children":[2,4,6,8,10,-1,-1,12,14,16,18,20,-1,-1,-1,-1,-1,22,24,26,28,30,-1,32,34,-1,-1,-1,-1,-1,-1,-1,-1,-1,-1],"split_conditions":[3.6095E1,1.3275E1,2.0135E3,1.2075001E1,1.3530001E1,2.1935463E-2,5.7546617E-3,1.0895E1,2.016E3,2.01E3,4.0225E4,8.925E0,2.1108653E-2,-2.8553985E-2,-4.057217E-3,-2.9797556E-3,6.008921E-2,4.00635E4,1.4735001E1,8.08E0,3.4161E4,2.39E4,-8.146069E-2,2.0115E3,9.68535E4,-1.9350962E-4,2.4813939E-2,7.840044E-3,-1.3537156E-2,1.4629591E-2,-9.520769E-3,-1.735189E-2,3.9784648E-2,-6.9169733E-3,1.4648581E-2],"split_indices":[1,1,0,1,1,0,0,1,0,0,2,1,0,0,0,0,0,2,1,1,2,2,0,0,2,0,0,0,0,0,0,0,0,0,0],"split_type":[0,0,0,0,0,0,0,0,0,0,0,0,0,0,0,0,0,0,0,0,0,0,0,0,0,0,0,0,0,0,0,0,0,0,0],"sum_hessian":[2.4E2,2.38E2,2E0,1.97E2,4.1E1,1E0,1E0,1.93E2,4E0,2E0,3.9E1,1.91E2,2E0,3E0,1E0,1E0,1E0,1.7E1,2.2E1,1.66E2,2.5E1,1.6E1,1E0,6E0,1.6E1,1.59E2,7E0,7E0,1.8E1,7E0,9E0,1E0,5E0,1.3E1,3E0],"tree_param":{"num_deleted":"0","num_feature":"7","num_nodes":"35","size_leaf_vector":"0"}},{"base_weights":[1.2398328E-3,5.9368106E-4,5.2303314E-2,-2.9392857E-3,7.786263E-3,6.2150955E-2,1.6304016E-2,-1.543562E-4,-8.979821E-2,8.386574E-2,-5.7540312E-3,3.7525818E-2,-4.3989224E-3,-1.1463982E-1,4.784107E-3,4.1105244E-2,2.7711558E-1,-1.0571641E-1,3.857529E-3,-3.383928E-3,7.8858554E-2,4.4318163E-3,-4.2175468E-2,-2.6951432E-2,-1.3488548E-1,7.247302E-2,-3.1906605E-2,-1.9170403E-2,-1.1919153E-1,8.621639E-2,-3.187417E-3,1.8976655E-2,-5.4430645E-2,1.702528E-1,4.1480403E-2,7.998786E-4,1.059261E-1,-5.327877E-3,-1.1527867E-1,2.851004E-2,1.0930848E-1,-3.758208E-2,-7.44009E-3,-2.5555268E-3,1.0904825E-1,4.4931895E-3,-6.088524E-2],"categories":[],"categories_nodes":[],"categories_segments":[],"categories_sizes":[],"default_left":[1,1,1,1,1,0,0,1,1,1,1,1,1,1,0,1,0,1,1,1,1,1,1,0,0,1,1,0,0,1,1,0,0,0,0,0,0,0,0,0,0,0,0,0,0,0,0],"id":33,"left_children":[1,3,5,7,9,-1,-1,11,13,15,17,19,21,23,-1,25,-1,27,29,31,33,35,37,-1,-1,39,41,-1,-1,43,45,-1,-1,-1,-1,-1,-1,-1,-1,-1,-1,-1,-1,-1,-1,-1,-1],"loss_changes":[7.920686E-3,6.096151E-3,5.021412E-5,3.8931392E-2,8.186351E-2,0E0,0E0,2.5275026E-2,1.2296334E-2,8.7770596E-2,6.574183E-2,2.7321443E-2,4.7557376E-2,3.465876E-3,0E0,2.7504778E-2,0E0,4.712358E-3,3.6828272E-2,1.1305821E-2,2.0267025E-2,4.2675294E-2,7.211509E-2,0E0,0E0,9.838786E-3,2.7582236E-4,0E0,0E0,1.0412816E-2,2.6419671E-2,0E0,0E0,0E0,0E0,0E0,0E0,0E0,0E0,0E0,0E0,0E0,0E0,0E0,0E0,0E0,0E0],"parents":[2147483647,0,0,1,1,2,2,3,3,4,4,7,7,8,8,9,9,10,10,11,11,12,12,13,13,15,15,17,17,18,18,19,19,20,20,21,21,22,22,25,25,26,26,29,29,30,30],"right_children":[2,4,6,8,10,-1,-1,12,14,16,18,20,22,24,-1,26,-1,28,30,32,34,36,38,-1,-1,40,42,-1,-1,44,46,-1,-1,-1,-1,-1,-1,-1,-1,-1,-1,-1,-1,-1,-1,-1,-1],"split_conditions":[3.6095E1,4.37675E4,2.0135E3,4.2725E4,4.5179E4,1.8645287E-2,4.891205E-3,1.5E0,2.0155E3,4.5039E4,4.78835E4,3.675E4,8.26E0,2.012E3,1.4352322E-3,1.0165E1,8.313468E-2,4.553E4,4.978E4,2.014E1,3.85E4,7.94E0,3.23765E4,-8.08543E-3,-4.0465645E-2,7.225E0,1.5545E1,-5.7511213E-3,-3.575746E-2,2.01E3,2.0145E3,5.6929966E-3,-1.6329193E-2,5.1075842E-2,1.2444122E-2,2.399636E-4,3.177783E-2,-1.5983632E-3,-3.4583602E-2,8.553012E-3,3.2792546E-2,-1.1274625E-2,-2.2320272E-3,-7.6665805E-4,3.2714475E-2,1.347957E-3,-1.8265573E-2],"split_indices":[1,2,0,2,2,0,0,3,0,2,2,2,1,0,0,1,0,2,2,1,2,1,2,0,0,1,1,0,0,0,0,0,0,0,0,0,0,0,0,0,0,0,0,0,0,0,0],"split_type":[0,0,0,0,0,0,0,0,0,0,0,0,0,0,0,0,0,0,0,0,0,0,0,0,0,0,0,0,0,0,0,0,0,0,0,0,0,0,0,0,0,0,0,0,0,0,0],"sum_hessian":[2.4E2,2.38E2,2E0,1.6E2,7.8E1,1E0,1E0,1.56E2,4E0,1.1E1,6.7E1,1.5E1,1.41E2,3E0,1E0,1E1,1E0,5E0,6.2E1,8E0,7E0,1.15E2,2.6E1,1E0,2E0,7E0,3E0,1E0,4E0,4E0,5.8E1,6E0,2E0,1E0,6E0,1.12E2,3E0,1.8E1,8E0,4E0,3E0,2E0,1E0,1E0,3E0,5.2E1,6E0],"tree_param":{"num_deleted":"0","num_feature":"7","num_nodes":"47","size_leaf_vector":"0"}},{"base_weights":[1.3228242E-3,-1.2993744E-3,1.3092653E-2,1.9728734E-4,-5.9109975E-2,9.039879E-2,7.259057E-3,-1.0320152E-3,4.6871327E-2,-2.2167841E-2,-7.634878E-2,-9.11665E-3,1.4471483E-1,-1.3559693E-2,2.3438105E-2,-2.7252361E-5,-6.365315E-2,9.410726E-3,-2.1351361E-1,6.585826E-2,-1.8881112E-3,-1.439444E-3,4.3049138E-2,3.7117958E-2,-1.6466856E-2,-4.983759E-2,8.654994E-2,-4.245603E-2,2.0411491E-2,8.426348E-4,-8.284998E-2,-1.278212E-1,1.0278745E-1,1.3163703E-2,8.0638565E-2,-7.254124E-2,3.300627E-2,1.143136E-1,3.0207872E-2,-6.402618E-2,4.5617422E-4,2.7580928E-2,-2.5641441E-2],"categories":[],"categories_nodes":[],"categories_segments":[],"categories_sizes":[],"default_left":[1,1,1,1,1,1,1,1,0,0,0,0,0,1,1,1,0,1,0,1,1,1,1,1,1,0,1,1,1,0,0,0,0,0,0,0,0,0,0,0,0,0,0],"id":34,"left_children":[1,3,5,7,9,11,13,15,-1,-1,-1,-1,-1,17,19,21,-1,23,-1,25,27,29,31,33,35,-1,37,39,41,-1,-1,-1,-1,-1,-1,-1,-1,-1,-1,-1,-1,-1,-1],"loss_changes":[7.4549536E-3,1.71432E-2,1.9186594E-2,1.1179416E-2,1.4917012E-3,1.7535169E-2,1.4464571E-2,1.1952951E-2,0E0,0E0,0E0,0E0,0E0,8.927679E-2,2.5908552E-2,1.1498406E-2,0E0,1.3517147E-2,0E0,2.5858916E-2,1.5340967E-2,3.4068517E-2,7.438345E-2,8.321032E-3,3.0136066E-2,0E0,9.06093E-3,5.5829417E-3,4.3391245E-3,0E0,0E0,0E0,0E0,0E0,0E0,0E0,0E0,0E0,0E0,0E0,0E0,0E0,0E0],"parents":[2147483647,0,0,1,1,2,2,3,3,4,4,5,5,6,6,7,7,13,13,14,14,15,15,17,17,19,19,20,20,21,21,22,22,23,23,24,24,26,26,27,27,28,28],"right_children":[2,4,6,8,10,12,14,16,-1,-1,-1,-1,-1,18,20,22,-1,24,-1,26,28,30,32,34,36,-1,38,40,42,-1,-1,-1,-1,-1,-1,-1,-1,-1,-1,-1,-1,-1,-1],"split_conditions":[1.3275E1,1.2075001E1,1.3530001E1,1.0585E1,5.2538E4,2.01E3,4.0225E4,1.0295E1,1.4061399E-2,-6.6503524E-3,-2.2904634E-2,-2.734995E-3,4.341445E-2,4.00635E4,1.7315E1,9.924999E0,-1.9095946E-2,2.39E4,-6.405409E-2,2.0115E3,1.953E1,9.469999E0,2.3214E4,1.839E4,2.9988E4,-1.49512775E-2,1.421E1,2.0125E3,2.0135E3,2.5279046E-4,-2.4854995E-2,-3.8346365E-2,3.0836236E-2,3.949111E-3,2.4191571E-2,-2.1762371E-2,9.901881E-3,3.4294084E-2,9.062362E-3,-1.9207854E-2,1.3685228E-4,8.274279E-3,-7.6924325E-3],"split_indices":[1,1,1,1,2,0,2,1,0,0,0,0,0,2,1,1,0,2,0,0,1,1,2,2,2,0,1,0,0,0,0,0,0,0,0,0,0,0,0,0,0,0,0],"split_type":[0,0,0,0,0,0,0,0,0,0,0,0,0,0,0,0,0,0,0,0,0,0,0,0,0,0,0,0,0,0,0,0,0,0,0,0,0,0,0,0,0,0,0],"sum_hessian":[2.4E2,1.97E2,4.3E1,1.93E2,4E0,2E0,4.1E1,1.89E2,4E0,2E0,2E0,1E0,1E0,1.8E1,2.3E1,1.87E2,2E0,1.7E1,1E0,8E0,1.5E1,1.82E2,5E0,8E0,9E0,1E0,7E0,5E0,1E1,1.78E2,4E0,1E0,4E0,6E0,2E0,4E0,5E0,4E0,3E0,3E0,2E0,9E0,1E0],"tree_param":{"num_deleted":"0","num_feature":"7","num_nodes":"43","size_leaf_vector":"0"}},{"base_weights":[6.609565E-4,1.5957965E-4,4.0383656E-2,-3.3680995E-3,4.6936474E-3,4.8690796E-2,1.1884689E-2,5.9971836E-4,-1.06651306E-1,1.0799593E-1,5.965613E-4,-7.8852073E-4,9.05354E-2,8.205573E-3,-1.8595774E-1,1.3189656E-2,-5.8939513E-3,1.77804E-3,-2.0584023E-2,-1.093328E-2,2.324164E-2,-3.6736727E-2,-2.421999E-1,-2.7076024E-4,2.354219E-1,-8.113017E-2,1.3649572E-3,-3.218574E-3,8.004225E-2,2.5703652E-2,-9.429947E-2,2.5839565E-2,-2.491547E-2,-2.6178082E-2,-1.0206169E-1,5.9730534E-2,-3.6044128E-3],"categories":[],"categories_nodes":[],"categories_segments":[],"categories_sizes":[],"default_left":[1,1,1,1,1,0,0,1,1,0,1,1,0,1,1,1,1,1,1,0,0,0,0,1,0,1,1,0,0,0,0,0,0,0,0,0,0],"id":35,"left_children":[1,3,5,7,9,-1,-1,11,13,-1,15,17,-1,19,21,23,25,27,29,-1,-1,-1,-1,31,-1,33,35,-1,-1,-1,-1,-1,-1,-1,-1,-1,-1],"loss_changes":[4.7933212E-3,3.8385505E-3,1.3155956E-4,5.538817E-2,4.4375595E-2,0E0,0E0,1.6427033E-2,4.7070336E-2,0E0,8.414774E-3,6.6414257E-3,0E0,1.1174264E-3,1.6279906E-2,1.0476059E-1,3.7247773E-2,4.5620125E-2,5.3605594E-2,0E0,0E0,0E0,0E0,2.2522172E-2,0E0,4.229605E-3,1.8487822E-2,0E0,0E0,0E0,0E0,0E0,0E0,0E0,0E0,0E0,0E0],"parents":[2147483647,0,0,1,1,2,2,3,3,4,4,7,7,8,8,10,10,11,11,13,13,14,14,15,15,16,16,17,17,18,18,23,23,25,25,26,26],"right_children":[2,4,6,8,10,-1,-1,12,14,-1,16,18,-1,20,22,24,26,28,30,-1,-1,-1,-1,32,-1,34,36,-1,-1,-1,-1,-1,-1,-1,-1,-1,-1],"split_conditions":[3.6095E1,3.6527E4,2.0135E3,3.58875E4,3.8244E4,1.46072395E-2,3.565407E-3,3.56375E4,8.2E0,3.239878E-2,4.5179E4,3.1802E4,2.7160622E-2,2.0145E3,2.0135E3,4.5039E4,4.78835E4,2.96115E4,6.25E0,-3.2799842E-3,6.972492E-3,-1.1021018E-2,-7.265997E-2,7.6E0,7.062657E-2,3.72E0,4.978E4,-9.6557225E-4,2.4012676E-2,7.7110957E-3,-2.8289843E-2,7.75187E-3,-7.4746413E-3,-7.853425E-3,-3.0618507E-2,1.791916E-2,-1.0813238E-3],"split_indices":[1,2,0,2,2,0,0,2,1,0,2,2,0,0,0,2,2,2,1,0,0,0,0,1,0,1,2,0,0,0,0,0,0,0,0,0,0],"split_type":[0,0,0,0,0,0,0,0,0,0,0,0,0,0,0,0,0,0,0,0,0,0,0,0,0,0,0,0,0,0,0,0,0,0,0,0,0],"sum_hessian":[2.4E2,2.38E2,2E0,1.34E2,1.04E2,1E0,1E0,1.3E2,4E0,3E0,1.01E2,1.29E2,1E0,2E0,2E0,3.4E1,6.7E1,1.15E2,1.4E1,1E0,1E0,1E0,1E0,3.3E1,1E0,5E0,6.2E1,1.09E2,6E0,9E0,5E0,1.6E1,1.7E1,2E0,3E0,4E0,5.8E1],"tree_param":{"num_deleted":"0","num_feature":"7","num_nodes":"37","size_leaf_vector":"0"}},{"base_weights":[6.679578E-4,-1.0366124E-3,1.2248485E-2,-2.0995163E-3,1.8479781E-2,2.9088577E-2,-1.0277952E-2,3.8004539E-4,-2.4558553E-2,1.8230319E-1,-1.613288E-2,6.371039E-2,1.2646589E-3,-2.6939781E-2,3.8111567E-2,-2.1633848E-3,9.085015E-2,2.0901928E-2,-4.110551E-2,7.084741E-4,-8.385253E-2,9.932343E-2,3.5285473E-2,4.8179626E-2,-1.4514182E-2,-5.9719373E-2,3.2275062E-4,6.498512E-2,-2.125454E-2,5.0091324E-4,-9.444828E-2,-1.741245E-2,1.22268915E-1,3.75461E-2,-3.115946E-2,-8.163837E-2,-5.012671E-3,2.9996077E-2,-1.1944567E-2,7.475567E-2,1.24403E-2,6.216812E-2,1.0101318E-2,-2.4770055E-2,1.4254252E-2,1.9286538E-2,-3.1391144E-2,1.7330408E-2,8.014727E-2,-3.4402078E-3,2.5276262E-2,1.0910382E-2,5.166645E-2,-9.501406E-2,-6.9212914E-4,-4.8177145E-2,3.915434E-2,7.999659E-3,3.6994457E-2,-3.1628846E-3,-2.2599181E-2,-1.0078748E-2,3.0812582E-2,-2.5161742E-3,-5.3603172E-2,-2.2829175E-2,3.552276E-2,-5.2642345E-2,5.5556297E-3],"categories":[],"categories_nodes":[],"categories_segments":[],"categories_sizes":[],"default_left":[1,1,1,1,1,1,1,1,1,0,1,1,1,1,1,1,1,1,1,1,0,0,1,1,1,0,1,1,0,1,0,0,0,1,0,1,1,1,1,0,1,0,0,1,0,1,1,0,0,0,0,0,0,0,0,0,0,0,0,0,0,0,0,0,0,0,0,0,0],"id":36,"left_children":[1,3,5,7,9,11,13,15,17,-1,19,21,23,25,27,29,31,33,35,37,-1,-1,39,41,43,-1,45,47,-1,49,-1,-1,-1,51,-1,53,55,57,59,-1,61,-1,-1,63,-1,65,67,-1,-1,-1,-1,-1,-1,-1,-1,-1,-1,-1,-1,-1,-1,-1,-1,-1,-1,-1,-1,-1,-1],"loss_changes":[4.769994E-3,4.415794E-3,1.2058737E-2,1.1202737E-2,6.531508E-2,1.7259091E-2,1.2314329E-2,4.207555E-2,1.5903834E-2,0E0,1.1464313E-2,4.5937076E-3,8.84219E-3,9.849474E-3,7.7627394E-3,4.3812964E-2,1.9136388E-2,6.3690282E-3,2.1534964E-2,3.6934852E-3,0E0,0E0,4.4802376E-3,9.6999435E-4,3.0084874E-3,0E0,4.8153354E-3,7.7865925E-4,0E0,1.7076777E-2,0E0,0E0,0E0,1.3168277E-3,0E0,7.513214E-3,1.9044356E-2,1.6587484E-4,5.8347953E-4,0E0,2.3791837E-3,0E0,0E0,4.356666E-3,0E0,4.229956E-3,2.647951E-3,0E0,0E0,0E0,0E0,0E0,0E0,0E0,0E0,0E0,0E0,0E0,0E0,0E0,0E0,0E0,0E0,0E0,0E0,0E0,0E0,0E0,0E0],"parents":[2147483647,0,0,1,1,2,2,3,3,4,4,5,5,6,6,7,7,8,8,10,10,11,11,12,12,13,13,14,14,15,15,16,16,17,17,18,18,19,19,22,22,23,23,24,24,26,26,27,27,29,29,33,33,35,35,36,36,37,37,38,38,40,40,43,43,45,45,46,46],"right_children":[2,4,6,8,10,12,14,16,18,-1,20,22,24,26,28,30,32,34,36,38,-1,-1,40,42,44,-1,46,48,-1,50,-1,-1,-1,52,-1,54,56,58,60,-1,62,-1,-1,64,-1,66,68,-1,-1,-1,-1,-1,-1,-1,-1,-1,-1,-1,-1,-1,-1,-1,-1,-1,-1,-1,-1,-1,-1],"split_conditions":[1.367E1,7.75295E4,5.8621E4,5.39375E4,8.0316E4,2.0145E3,2.0125E3,5.2566E4,4.6499996E0,5.469096E-2,2.012E3,1.7315E1,1.035E4,2.1615002E1,2.0135E3,5.0228E4,2.009E3,2.014E3,7.355E0,9.11165E4,-2.515576E-2,2.979703E-2,4.25005E4,2.7435E1,2.8E1,-1.7915813E-2,2.011E3,2.2645E1,-6.376362E-3,4.35E4,-2.8334485E-2,-5.2237352E-3,3.6680676E-2,2.009E3,-9.347838E-3,2.0145E3,6.16015E4,2.007E3,7.315E0,2.2426702E-2,5.0012E4,1.8650437E-2,3.0303956E-3,2.6E4,4.276276E-3,2.007E3,9.68535E4,5.1991227E-3,2.404418E-2,-1.0320623E-3,7.582879E-3,3.2731146E-3,1.54999355E-2,-2.8504219E-2,-2.0763875E-4,-1.4453144E-2,1.1746302E-2,2.3998977E-3,1.1098337E-2,-9.4886543E-4,-6.7797545E-3,-3.0236244E-3,9.243775E-3,-7.548523E-4,-1.6080953E-2,-6.848753E-3,1.0656828E-2,-1.5792705E-2,1.666689E-3],"split_indices":[1,2,2,2,2,0,0,2,1,0,0,1,2,1,0,2,0,0,1,2,0,0,2,1,1,0,0,1,0,2,0,0,0,0,0,0,2,0,1,0,2,0,0,2,0,0,2,0,0,0,0,0,0,0,0,0,0,0,0,0,0,0,0,0,0,0,0,0,0],"split_type":[0,0,0,0,0,0,0,0,0,0,0,0,0,0,0,0,0,0,0,0,0,0,0,0,0,0,0,0,0,0,0,0,0,0,0,0,0,0,0,0,0,0,0,0,0,0,0,0,0,0,0,0,0,0,0,0,0,0,0,0,0,0,0,0,0,0,0,0,0],"sum_hessian":[2.4E2,2.1E2,3E1,2E2,1E1,1.7E1,1.3E1,1.81E2,1.9E1,1E0,9E0,7E0,1E1,1E1,3E0,1.77E2,4E0,5E0,1.4E1,8E0,1E0,2E0,5E0,2E0,8E0,4E0,6E0,2E0,1E0,1.73E2,4E0,1E0,3E0,4E0,1E0,6E0,8E0,2E0,6E0,1E0,4E0,1E0,1E0,6E0,2E0,4E0,2E0,1E0,1E0,1.5E2,2.3E1,2E0,2E0,5E0,1E0,4E0,4E0,1E0,1E0,4E0,2E0,2E0,2E0,4E0,2E0,1E0,3E0,1E0,1E0],"tree_param":{"num_deleted":"0","num_feature":"7","num_nodes":"69","size_leaf_vector":"0"}},{"base_weights":[8.210004E-4,-1.1156393E-2,2.4478708E-3,-1.5092768E-2,1.7219145E-2,2.9141866E-2,1.3993279E-3,-1.0418668E-2,-2.8936656E-2,4.1384995E-3,2.823054E-2,4.683733E-5,5.8225185E-2,-4.560144E-2,2.555786E-3,1.716163E-3,-1.2536483E-2,3.8783163E-2,-1.9333035E-2,5.9521794E-3,7.366546E-2,-1.0188675E-1,-6.0584247E-3,5.1238965E-2,1.3135046E-3,5.8933496E-3,-1.6406825E-3,-1.6009135E-2,-2.9229869E-3,-2.1608472E-3,-2.4336815E-2,-2.9845277E-2,3.2651067E-2,1.3954878E-2,7.14434E-2,-1.4140614E-2,3.8363223E-3,-2.3291707E-3,-1.3185292E-4,-1.6991155E-2,-2.1124482E-3,-2.216812E-2,1.2241609E-2,-1.1206865E-3,2.2053003E-2,-5.282511E-2,1.2696981E-3,4.0847275E-2,1.0365238E-3],"categories":[],"categories_nodes":[],"categories_segments":[],"categories_sizes":[],"default_left":[1,1,1,1,1,1,1,1,0,0,0,1,1,1,1,1,1,0,1,0,0,0,1,1,1,0,1,1,1,0,0,0,0,1,0,1,1,0,0,0,0,0,0,0,0,0,0,0,0],"id":37,"left_children":[1,3,5,7,9,11,13,15,-1,-1,-1,17,19,21,23,25,27,-1,29,-1,-1,-1,31,33,35,-1,37,39,41,-1,-1,-1,-1,43,-1,45,47,-1,-1,-1,-1,-1,-1,-1,-1,-1,-1,-1,-1],"loss_changes":[4.723355E-3,3.4990904E-3,5.921048E-3,1.3809185E-3,4.5931258E-4,6.7667128E-3,1.1313557E-2,5.612003E-4,0E0,0E0,0E0,4.503321E-3,2.7899686E-3,1.051118E-2,1.2149294E-2,6.57578E-5,5.541234E-4,0E0,2.9111514E-4,0E0,0E0,0E0,4.6575884E-3,2.7695345E-3,